{"learner":{"attributes":{"best_iteration":"21","best_score":"614.3569337947267"},"feature_names":["n_tax_households","average_tax_income","new_mortgages","debt_ratio","interest_rates","n_rooms","year_month_numeric","month_sin","month_cos","departement","unique_city_id","no_garden","small_outdoor_space","average_outdoor_space","large_outdoor_space","building_type","living_area"],"feature_types":["float","float","float","float","float","float","float","float","float","c","c","c","c","c","c","c","float"],"gradient_booster":{"model":{"gbtree_model_param":{"num_parallel_tree":"1","num_trees":"37"},"iteration_indptr":[0,1,2,3,4,5,6,7,8,9,10,11,12,13,14,15,16,17,18,19,20,21,22,23,24,25,26,27,28,29,30,31,32,33,34,35,36,37],"tree_info":[0,0,0,0,0,0,0,0,0,0,0,0,0,0,0,0,0,0,0,0,0,0,0,0,0,0,0,0,0,0,0,0,0,0,0,0,0],"trees":[{"base_weights":[1.3333724E1,2.689327E2,-6.414738E1,4.4967163E2,6.785795E1,-2.9069916E2,1.2520847E2,5.0924573E2,-3.1581802E2,-3.1063395E1,1.11537735E2,-3.9295163E2,-1.7323563E2,-1.9481482E2,1.7944508E2,3.5714386E2,6.4767816E2,-2.1593697E1,-2.0926545E0,1.4446057E2,-1.1646066E1,1.5577954E2,-4.440539E2,-3.099242E2,-2.3072111E1,-4.5474854E0,-4.0829715E2,3.4373126E2,4.4753506E1,4.334496E2,-2.1593697E1,1.9748554E1,4.400309E1,2.4709277E2,-3.661582E1,-1.8342469E0,1.0653345E1,-4.9297617E2,-1.5005104E2,-1.3619583E2,-5.8433856E2,2.6273627E2,-9.707052E1,-1.8124811E2,9.707394E1,-2.279296E1,-8.853703E0,4.4870584E2,1.1086663E2,1.25238045E2,-2.2490718E2,1.6074768E2,4.840156E2,2.8970782E2,-1.1934073E1,-1.4794481E1,5.3877197E1,-3.880154E1,-4.3845477E2,-1.5747778E1,-1.4020868E1,3.2189882E0,-8.472403E0,-1.6027487E2,-4.457673E1,-3.2204437E0,1.8031239E1,-1.3202785E2,6.668893E0,1.1578348E1,-1.9802107E1,-1.8892212E0,1.4473994E1,3.2641843E2,3.7209698E1,-9.1684814E1,1.9285669E2,2.2742026E2,-8.066342E1,-1.5572852E1,-7.202285E1,-2.7310822E0,1.2537234E1,2.6674149E1,7.064828E0,2.3155567E1,1.2201424E2,2.0628357E1,7.996698E0,4.583841E0,-4.5674326E2,2.1390016E0,-6.246475E0,5.670798E0,-1.2852579E1,-1.700615E2,5.107483E0,7.003398E1,5.9974384E2,-1.0186431E1,8.912259E0,1.8770254E1,3.491401E1,4.9042737E2,8.454569E1,-1.7755782E2,1.8305006E1,-4.979674E0,-1.1254395E1,-1.5162233E-1,1.0294205E1,1.2196429E0,-1.4307861E-1,-1.9294825E1,-3.0533121E1,-1.0530662E1,-5.412603E0,1.7290657E1,-4.5479107E0,1.0616106E1,3.5924335E1,3.5289E-2,3.019687E0,1.3148023E1,2.9912262E1,1.0651017E1,-9.4278824E-1,-6.3344226E0,-1.9699759E1,-5.963718E0,5.119638E0],"categories":[0,0,0,0,0,0,0,0,0,0,0,0,0,0,0],"categories_nodes":[0,11,23,24,25,38,47,48,49,59,90,97,98,104,108],"categories_segments":[0,1,2,3,4,5,6,7,8,9,10,11,12,13,14],"categories_sizes":[1,1,1,1,1,1,1,1,1,1,1,1,1,1,1],"default_left":[1,0,0,0,0,0,0,0,0,0,0,1,0,0,0,0,0,0,0,0,0,0,0,1,1,1,0,0,0,0,0,0,0,0,0,0,0,0,1,0,0,0,0,0,0,0,0,1,1,1,0,0,0,0,0,0,0,0,0,1,0,0,0,0,0,0,0,0,0,0,0,0,0,0,0,0,0,0,0,0,0,0,0,0,0,0,0,0,0,0,1,0,0,0,0,0,0,1,1,0,0,0,0,0,1,0,0,0,1,0,0,0,0,0,0,0,0,0,0,0,0,0,0,0,0,0,0,0,0,0,0],"id":0,"left_children":[1,3,5,7,9,11,13,15,17,-1,19,21,23,25,27,29,31,-1,-1,33,-1,35,37,39,41,43,45,47,49,51,-1,-1,-1,53,55,-1,-1,57,59,61,63,65,67,69,71,-1,-1,73,75,77,79,81,83,85,-1,-1,87,-1,89,91,-1,-1,-1,93,-1,-1,-1,95,-1,-1,-1,-1,-1,97,-1,99,101,103,105,-1,107,-1,-1,-1,-1,-1,109,111,-1,-1,113,-1,-1,-1,-1,115,-1,117,119,-1,-1,-1,121,123,125,127,-1,-1,129,-1,-1,-1,-1,-1,-1,-1,-1,-1,-1,-1,-1,-1,-1,-1,-1,-1,-1,-1,-1,-1,-1],"loss_changes":[5.3643555E6,2.2590345E6,8.959371E6,1.6657395E6,1.00242175E6,1.0729645E6,2.0136541E6,4.214165E5,7.73105E4,0E0,3.73865E5,1.4712445E6,9.370286E5,6.886614E5,2.153157E6,1.2107075E6,5.33276E5,0E0,0E0,5.29407E5,0E0,6.2945234E4,5.87661E5,1.064581E6,5.119393E5,1.9716014E5,7.258625E3,1.025828E6,1.2218602E6,1.4282675E5,0E0,0E0,0E0,4.4177112E5,2.7402884E5,0E0,0E0,2.61614E5,1.3565305E5,1.1762234E5,1.0295455E6,1.8334619E5,1.706709E5,4.4639112E5,1.9257069E5,0E0,0E0,8.411155E5,2.6679006E5,9.2304156E5,1.495855E5,9.122645E4,1.45015E5,4.37831E5,0E0,0E0,2.8437205E4,0E0,3.81209E5,3.7295324E4,0E0,0E0,0E0,1.6158822E5,0E0,0E0,0E0,1.6878431E5,0E0,0E0,0E0,0E0,0E0,1.5697542E6,0E0,1.8753353E5,3.0404716E5,1.0482704E6,7.143372E5,0E0,8.931684E3,0E0,0E0,0E0,0E0,0E0,1.0550081E5,7.772246E2,0E0,0E0,1.351065E5,0E0,0E0,0E0,0E0,1.4797875E4,0E0,6.086323E5,3.534885E5,0E0,0E0,0E0,6.0586895E3,8.7935E4,2.6970594E5,9.321575E4,0E0,0E0,4.9041312E4,0E0,0E0,0E0,0E0,0E0,0E0,0E0,0E0,0E0,0E0,0E0,0E0,0E0,0E0,0E0,0E0,0E0,0E0,0E0,0E0,0E0,0E0],"parents":[2147483647,0,0,1,1,2,2,3,3,4,4,5,5,6,6,7,7,8,8,10,10,11,11,12,12,13,13,14,14,15,15,16,16,19,19,21,21,22,22,23,23,24,24,25,25,26,26,27,27,28,28,29,29,33,33,34,34,37,37,38,38,39,39,40,40,41,41,42,42,43,43,44,44,47,47,48,48,49,49,50,50,51,51,52,52,53,53,56,56,58,58,59,59,63,63,67,67,73,73,75,75,76,76,77,77,78,78,80,80,86,86,87,87,90,90,95,95,97,97,98,98,102,102,103,103,104,104,105,105,108,108],"right_children":[2,4,6,8,10,12,14,16,18,-1,20,22,24,26,28,30,32,-1,-1,34,-1,36,38,40,42,44,46,48,50,52,-1,-1,-1,54,56,-1,-1,58,60,62,64,66,68,70,72,-1,-1,74,76,78,80,82,84,86,-1,-1,88,-1,90,92,-1,-1,-1,94,-1,-1,-1,96,-1,-1,-1,-1,-1,98,-1,100,102,104,106,-1,108,-1,-1,-1,-1,-1,110,112,-1,-1,114,-1,-1,-1,-1,116,-1,118,120,-1,-1,-1,122,124,126,128,-1,-1,130,-1,-1,-1,-1,-1,-1,-1,-1,-1,-1,-1,-1,-1,-1,-1,-1,-1,-1,-1,-1,-1,-1],"split_conditions":[NaN,4.741796E-1,3.3973545E-1,1E0,5.4858816E-1,6.8085104E-1,1.6744359E-1,-2.4492937E-16,1.1635279E-1,-3.1063395E1,3.7807196E-1,NaN,6.283388E-2,4.933859E-1,2.7201194E-1,7.8014183E-1,8.660254E-1,-2.1593697E1,-2.0926545E0,7.33274E-1,-1.1646066E1,2.3371248E-1,1E0,NaN,NaN,NaN,1.6487041E-1,7.1648437E-1,3.0496454E-1,8.025948E-2,-2.1593697E1,1.9748554E1,4.400309E1,1E0,2.3475666E-1,-1.8342469E0,1.0653345E1,1.6002238E-1,NaN,2.8230468E-2,1.9269906E-2,-8.660254E-1,8.1560284E-1,1.1202685E-1,1.1202685E-1,-2.279296E1,-8.853703E0,NaN,NaN,NaN,2.7995524E-1,4.0033564E-1,7.3758864E-1,2.0637703E-1,-1.1934073E1,-1.4794481E1,2.797688E-1,-3.880154E1,2.3371248E-1,NaN,-1.4020868E1,3.2189882E0,-8.472403E0,2.5247063E-2,-4.457673E1,-3.2204437E0,1.8031239E1,1.3062833E-1,6.668893E0,1.1578348E1,-1.9802107E1,-1.8892212E0,1.4473994E1,5.98957E-1,3.7209698E1,2.3475666E-1,8.660254E-1,3.7807196E-1,2.6241136E-1,-1.5572852E1,5.163155E-1,-2.7310822E0,1.2537234E1,2.6674149E1,7.064828E0,2.3155567E1,6.6611546E-1,2.5250793E-1,7.996698E0,4.583841E0,NaN,2.1390016E0,-6.246475E0,5.670798E0,-1.2852579E1,2.4366958E-1,5.107483E0,NaN,NaN,-1.0186431E1,8.912259E0,1.8770254E1,1.8370315E-1,3.083349E-1,NaN,4.3747902E-1,1.8305006E1,-4.979674E0,NaN,-1.5162233E-1,1.0294205E1,1.2196429E0,-1.4307861E-1,-1.9294825E1,-3.0533121E1,-1.0530662E1,-5.412603E0,1.7290657E1,-4.5479107E0,1.0616106E1,3.5924335E1,3.5289E-2,3.019687E0,1.3148023E1,2.9912262E1,1.0651017E1,-9.4278824E-1,-6.3344226E0,-1.9699759E1,-5.963718E0,5.119638E0],"split_indices":[12,3,3,7,3,4,2,7,2,0,2,13,3,3,2,4,8,0,0,3,0,2,8,14,13,11,2,3,4,3,0,0,0,7,2,0,0,2,11,2,3,7,4,2,2,0,0,14,11,14,2,2,4,2,0,0,2,0,2,14,0,0,0,2,0,0,0,3,0,0,0,0,0,3,0,2,7,2,4,0,2,0,0,0,0,0,3,2,0,0,14,0,0,0,0,2,0,11,11,0,0,0,2,2,11,2,0,0,11,0,0,0,0,0,0,0,0,0,0,0,0,0,0,0,0,0,0,0,0,0,0],"split_type":[1,0,0,0,0,0,0,0,0,0,0,1,0,0,0,0,0,0,0,0,0,0,0,1,1,1,0,0,0,0,0,0,0,0,0,0,0,0,1,0,0,0,0,0,0,0,0,1,1,1,0,0,0,0,0,0,0,0,0,1,0,0,0,0,0,0,0,0,0,0,0,0,0,0,0,0,0,0,0,0,0,0,0,0,0,0,0,0,0,0,1,0,0,0,0,0,0,1,1,0,0,0,0,0,1,0,0,0,1,0,0,0,0,0,0,0,0,0,0,0,0,0,0,0,0,0,0,0,0,0,0],"sum_hessian":[2.69E2,6.2E1,2.07E2,3.2E1,3E1,9.4E1,1.13E2,3E1,2E0,1E0,2.9E1,4.9E1,4.5E1,1.6E1,9.7E1,1.6E1,1.4E1,1E0,1E0,2.7E1,2E0,4E0,4.5E1,2.3E1,2.2E1,9E0,7E0,4.3E1,5.4E1,1.5E1,1E0,8E0,6E0,1.7E1,1E1,1E0,3E0,3.8E1,7E0,1.5E1,8E0,4E0,1.8E1,3E0,6E0,5E0,2E0,2.9E1,1.4E1,4.2E1,1.2E1,3E0,1.2E1,1.6E1,1E0,2E0,8E0,4E0,3.4E1,4E0,3E0,2E0,1.3E1,4E0,4E0,1E0,3E0,1.6E1,2E0,1E0,2E0,4E0,2E0,2.2E1,7E0,4E0,1E1,2.8E1,1.4E1,7E0,5E0,1E0,2E0,1E1,2E0,7E0,9E0,7E0,1E0,1E0,3.3E1,3E0,1E0,1E0,3E0,1.4E1,2E0,1.2E1,1E1,3E0,1E0,4E0,6E0,9E0,1.9E1,1.2E1,2E0,3E0,2E0,4E0,5E0,6E0,1E0,2.5E1,8E0,7E0,7E0,4E0,8E0,3E0,7E0,3E0,3E0,4E0,5E0,8E0,1.1E1,1.1E1,1E0,1E0,1E0],"tree_param":{"num_deleted":"0","num_feature":"17","num_nodes":"131","size_leaf_vector":"1"}},{"base_weights":[-1.9705845E1,2.3328238E2,-9.401755E1,3.2867398E2,-1.0362394E2,-2.3870589E2,4.200286E1,5.1340533E2,5.3616444E1,1.4323567E2,-2.5668326E2,-1.3894131E2,-3.0977905E2,1.4278153E1,3.7984576E2,-8.2199745E1,5.623826E2,-3.028681E1,1.20200066E2,3.177162E2,-6.857511E0,2.1062398E2,-4.2028873E2,-3.9323035E2,4.244883E1,-1.6516835E2,-4.4370773E2,-9.579512E1,1.0050933E2,2.7649097E1,1.6536765E2,-1.6977346E1,1.0812366E1,7.326977E1,4.6764627E2,2.6081404E1,1.2330574E1,2.127408E1,-1.3950196E-1,1.3381106E1,2.415692E0,-5.5816394E2,1.017406E1,-4.6952075E2,1.4472856E2,-4.130399E1,1.1023317E2,-5.8050938E1,-2.7579053E2,-2.8256784E1,-1.1107492E2,-3.3718304E2,-4.8808E1,3.0504807E2,-6.2427467E1,1.35579405E1,-6.444925E0,5.958693E2,2.7908224E2,-1.45714E2,2.3634703E2,-2.0403383E0,-3.2673702E1,5.5290284E0,-5.155662E2,1.4152814E1,-3.298172E0,1.6563509E2,-2.2203572E2,4.0201393E1,-1.8142914E1,-5.771566E0,-1.6419554E1,-5.352873E1,-1.6962549E2,9.295349E-1,-2.4160534E1,1.4347964E2,-1.669541E2,4.9523105E2,9.139981E1,-2.2190929E2,7.3942245E1,3.9303592E2,8.823622E2,3.2749707E2,-6.337024E0,-3.2340002E2,2.664335E1,4.0067697E2,-1.8740814E1,-6.029355E2,-1.2456683E2,3.9665546E2,5.2909284E0,-1.8415249E1,-2.5255494E0,-1.22679245E2,1.9733897E2,4.054874E0,-4.833673E0,-1.1205957E1,-1.5361328E-1,-8.80914E1,4.2071674E2,-8.78015E1,-2.7038336E1,6.5384814E2,1.1067412E2,-2.6215726E2,2.2368265E2,-2.0275688E1,-2.2472557E1,5.2637714E2,-5.1636543E1,2.2639177E1,9.51093E0,5.345521E1,2.0074972E1,-1.4218415E0,1.8296707E1,-1.7982365E1,-4.460275E0,7.2566085E0,-7.0111427E0,2.350144E1,1.3479462E0,-1.6620682E1,-3.4832237E1,-9.077667E0,-2.2526774E0,8.608456E0,2.7090534E1,-3.0354106E0,2.1581995E1,6.3861895E0,-1.7120625E1,-2.8643079E0,2.7796726E1,6.3624554E0,-8.389785E0,1.066687E0,2.4186247E1,4.47408E0,-9.14173E0,2.0449045E1,5.036278E1,-8.613694E0,1.7836538E1,-1.740679E1,-1.05542E-1,1.4659668E0,1.7418583E1,2.4781082E0,-3.1727488E0,1.1627427E1,3.5196575E1,-1.0232337E1,5.391411E0],"categories":[0,0,0,0,0,0,0,0],"categories_nodes":[0,5,11,14,104,105,109,110],"categories_segments":[0,1,2,3,4,5,6,7],"categories_sizes":[1,1,1,1,1,1,1,1],"default_left":[1,0,0,0,0,1,0,0,0,0,0,1,0,0,1,0,0,0,0,0,0,0,0,0,0,0,0,0,0,0,0,0,0,0,0,0,0,0,0,0,0,0,0,0,0,0,0,0,0,0,0,0,0,0,0,0,0,0,0,0,0,0,0,0,0,0,0,0,0,0,0,0,0,0,0,0,0,0,0,0,0,0,0,0,0,0,0,0,0,0,0,0,0,0,0,0,0,0,0,0,0,0,0,0,1,1,0,0,0,1,1,0,0,0,0,0,0,0,0,0,0,0,0,0,0,0,0,0,0,0,0,0,0,0,0,0,0,0,0,0,0,0,0,0,0,0,0,0,0,0,0,0,0,0,0,0,0,0,0],"id":1,"left_children":[1,3,5,7,9,11,13,15,17,19,21,23,25,27,29,31,33,-1,35,37,-1,39,41,43,45,47,49,51,53,-1,55,-1,-1,-1,57,-1,59,-1,-1,-1,-1,61,-1,63,65,-1,67,69,71,-1,73,75,77,79,81,-1,-1,83,85,87,89,-1,-1,-1,91,-1,-1,93,95,97,-1,-1,-1,99,101,-1,-1,103,105,107,109,111,113,115,117,119,-1,121,123,125,-1,127,129,131,133,-1,-1,135,137,-1,-1,-1,-1,139,141,143,-1,145,147,149,151,153,-1,155,157,-1,-1,-1,-1,-1,-1,-1,-1,-1,-1,-1,-1,-1,-1,-1,-1,-1,-1,-1,-1,-1,-1,-1,-1,-1,-1,-1,-1,-1,-1,-1,-1,-1,-1,-1,-1,-1,-1,-1,-1,-1,-1,-1,-1],"loss_changes":[4.966329E6,1.9623405E6,4.0248625E6,2.3606255E6,5.657445E5,6.58926E5,9.874356E5,8.63019E5,9.508513E5,3.3710612E5,7.766091E5,2.0000898E6,1.0306625E6,9.493113E5,2.05626E5,3.0383966E5,1.538965E6,0E0,8.163028E5,1.3934506E5,0E0,1.4824266E4,7.1559275E5,8.0669275E5,1.6217499E6,3.2762744E5,1.108564E6,4.825962E5,1.885349E6,0E0,1.9060577E5,0E0,0E0,0E0,4.3816E5,0E0,6.0091244E5,0E0,0E0,0E0,0E0,2.6919012E5,0E0,4.84388E5,1.06104984E5,0E0,4.9698528E5,4.937559E5,8.0183125E4,0E0,2.1244422E4,3.726528E5,8.872399E5,9.705425E5,7.123601E5,0E0,0E0,4.667445E5,2.772812E5,3.1487144E5,8.532073E5,0E0,0E0,0E0,4.3731425E5,0E0,0E0,8.128421E5,8.175175E4,3.569401E5,0E0,0E0,0E0,4.2690445E4,3.561582E4,0E0,0E0,1.00006275E6,6.6263756E5,7.2060075E5,6.66644E5,6.790883E5,1.0498722E6,3.505075E4,1.974125E4,1.6089762E5,0E0,1.0361969E4,1.3898153E5,1.4283669E5,0E0,7.26305E4,9.945117E3,1.9998525E5,4.2014544E5,0E0,0E0,4.2888725E5,6.709994E5,0E0,0E0,0E0,0E0,1.7582392E5,1.6583125E5,3.701633E5,0E0,3.66893E5,4.0956156E5,8.869878E4,2.3213562E5,3.0284904E4,0E0,4.4984E4,3.880627E5,0E0,0E0,0E0,0E0,0E0,0E0,0E0,0E0,0E0,0E0,0E0,0E0,0E0,0E0,0E0,0E0,0E0,0E0,0E0,0E0,0E0,0E0,0E0,0E0,0E0,0E0,0E0,0E0,0E0,0E0,0E0,0E0,0E0,0E0,0E0,0E0,0E0,0E0,0E0,0E0,0E0,0E0,0E0,0E0],"parents":[2147483647,0,0,1,1,2,2,3,3,4,4,5,5,6,6,7,7,8,8,9,9,10,10,11,11,12,12,13,13,14,14,15,15,16,16,18,18,19,19,21,21,22,22,23,23,24,24,25,25,26,26,27,27,28,28,30,30,34,34,36,36,41,41,43,43,44,44,46,46,47,47,48,48,50,50,51,51,52,52,53,53,54,54,57,57,58,58,59,59,60,60,64,64,67,67,68,68,69,69,73,73,74,74,77,77,78,78,79,79,80,80,81,81,82,82,83,83,84,84,85,85,87,87,88,88,89,89,91,91,92,92,93,93,94,94,97,97,98,98,103,103,104,104,105,105,107,107,108,108,109,109,110,110,111,111,113,113,114,114],"right_children":[2,4,6,8,10,12,14,16,18,20,22,24,26,28,30,32,34,-1,36,38,-1,40,42,44,46,48,50,52,54,-1,56,-1,-1,-1,58,-1,60,-1,-1,-1,-1,62,-1,64,66,-1,68,70,72,-1,74,76,78,80,82,-1,-1,84,86,88,90,-1,-1,-1,92,-1,-1,94,96,98,-1,-1,-1,100,102,-1,-1,104,106,108,110,112,114,116,118,120,-1,122,124,126,-1,128,130,132,134,-1,-1,136,138,-1,-1,-1,-1,140,142,144,-1,146,148,150,152,154,-1,156,158,-1,-1,-1,-1,-1,-1,-1,-1,-1,-1,-1,-1,-1,-1,-1,-1,-1,-1,-1,-1,-1,-1,-1,-1,-1,-1,-1,-1,-1,-1,-1,-1,-1,-1,-1,-1,-1,-1,-1,-1,-1,-1,-1,-1],"split_conditions":[NaN,8.660254E-1,3.5894173E-1,4.741796E-1,-1.8369701E-16,NaN,8.080641E-1,9.52381E-2,5.4858816E-1,1.904762E-1,1.0080179E-1,NaN,1.4614601E-1,1.4285715E-1,NaN,5.1818013E-1,1.4285715E-1,-3.028681E1,2.0637703E-1,5.98957E-1,-6.857511E0,2.8230468E-2,7.7066904E-1,1E0,2.8230468E-2,1.8437442E-1,8.194667E-1,1.6487041E-1,1.904762E-1,2.7649097E1,1.4285715E-1,-1.6977346E1,1.0812366E1,7.326977E1,1.904762E-1,2.6081404E1,1.904762E-1,2.127408E1,-1.3950196E-1,1.3381106E1,2.415692E0,3.66955E-2,1.017406E1,2.5247063E-2,1.3693827E-1,-4.130399E1,2.3809524E-1,2.3809524E-1,-5E-1,-2.8256784E1,9.713593E-1,4.741796E-1,9.52381E-2,5.821674E-1,5.821674E-1,1.35579405E1,-6.444925E0,-2.4492937E-16,5.473056E-1,-1.8369701E-16,3.7807196E-1,-2.0403383E0,-3.2673702E1,5.5290284E0,8.194667E-1,1.4152814E1,-3.298172E0,6.123234E-17,7.154668E-2,5E-1,-1.8142914E1,-5.771566E0,-1.6419554E1,9.52381E-2,1.4285715E-1,9.295349E-1,-2.4160534E1,5E-1,1E0,2.1536453E-1,1.9037852E-1,4.933859E-1,6.157466E-1,-5E-1,5.1818013E-1,2.5247063E-2,-6.337024E0,2.8644416E-1,6.9969475E-1,2.3809524E-1,-1.8740814E1,7.111691E-2,9.52381E-2,3.875816E-1,9.713593E-1,-1.8415249E1,-2.5255494E0,9.52381E-2,3.580086E-2,4.054874E0,-4.833673E0,-1.1205957E1,-1.5361328E-1,-8.660254E-1,NaN,NaN,-2.7038336E1,1.8362856E-1,5.163155E-1,NaN,NaN,1.1355585E-1,-2.2472557E1,2.857143E-1,6.8290514E-1,2.2639177E1,9.51093E0,5.345521E1,2.0074972E1,-1.4218415E0,1.8296707E1,-1.7982365E1,-4.460275E0,7.2566085E0,-7.0111427E0,2.350144E1,1.3479462E0,-1.6620682E1,-3.4832237E1,-9.077667E0,-2.2526774E0,8.608456E0,2.7090534E1,-3.0354106E0,2.1581995E1,6.3861895E0,-1.7120625E1,-2.8643079E0,2.7796726E1,6.3624554E0,-8.389785E0,1.066687E0,2.4186247E1,4.47408E0,-9.14173E0,2.0449045E1,5.036278E1,-8.613694E0,1.7836538E1,-1.740679E1,-1.05542E-1,1.4659668E0,1.7418583E1,2.4781082E0,-3.1727488E0,1.1627427E1,3.5196575E1,-1.0232337E1,5.391411E0],"split_indices":[12,7,3,3,8,11,3,5,3,5,2,15,3,5,11,2,5,0,2,3,0,2,3,7,2,2,2,2,5,0,5,0,0,0,5,0,5,0,0,0,0,3,0,2,2,0,5,5,7,0,2,3,5,3,3,0,0,7,2,8,2,0,0,0,2,0,0,8,3,8,0,0,0,5,5,0,0,8,8,2,2,3,3,7,2,2,0,2,3,5,0,2,5,2,2,0,0,5,2,0,0,0,0,8,11,11,0,2,2,11,11,2,0,5,3,0,0,0,0,0,0,0,0,0,0,0,0,0,0,0,0,0,0,0,0,0,0,0,0,0,0,0,0,0,0,0,0,0,0,0,0,0,0,0,0,0,0,0,0],"split_type":[1,0,0,0,0,1,0,0,0,0,0,1,0,0,1,0,0,0,0,0,0,0,0,0,0,0,0,0,0,0,0,0,0,0,0,0,0,0,0,0,0,0,0,0,0,0,0,0,0,0,0,0,0,0,0,0,0,0,0,0,0,0,0,0,0,0,0,0,0,0,0,0,0,0,0,0,0,0,0,0,0,0,0,0,0,0,0,0,0,0,0,0,0,0,0,0,0,0,0,0,0,0,0,0,1,1,0,0,0,1,1,0,0,0,0,0,0,0,0,0,0,0,0,0,0,0,0,0,0,0,0,0,0,0,0,0,0,0,0,0,0,0,0,0,0,0,0,0,0,0,0,0,0,0,0,0,0,0,0],"sum_hessian":[2.62E2,5.9E1,2.03E2,4.6E1,1.3E1,9.8E1,1.05E2,2.7E1,1.9E1,5E0,8E0,4.2E1,5.6E1,9.8E1,7E0,2E0,2.5E1,1E0,1.8E1,3E0,2E0,2E0,6E0,1.7E1,2.5E1,2.8E1,2.8E1,4.3E1,5.5E1,3E0,4E0,1E0,1E0,1E0,2.4E1,3E0,1.5E1,2E0,1E0,1E0,1E0,5E0,1E0,1.5E1,2E0,1E0,2.4E1,1.5E1,1.3E1,2E1,8E0,6E0,3.7E1,2.4E1,3.1E1,3E0,1E0,1.3E1,1.1E1,9E0,6E0,1E0,4E0,1E0,1.4E1,1E0,1E0,2.1E1,3E0,1.2E1,3E0,4E0,9E0,5E0,3E0,2E0,4E0,1.4E1,2.3E1,1.2E1,1.2E1,1.4E1,1.7E1,9E0,4E0,1E1,1E0,4E0,5E0,5E0,1E0,1.1E1,3E0,8E0,1.3E1,1E0,2E0,6E0,6E0,1E0,4E0,2E0,1E0,8E0,6E0,2E1,3E0,8E0,4E0,3E0,9E0,8E0,6E0,3E0,1.4E1,6E0,3E0,2E0,2E0,1E0,9E0,3E0,1E0,3E0,2E0,4E0,1E0,4E0,7E0,1E0,2E0,4E0,4E0,1.2E1,1E0,3E0,3E0,4E0,2E0,2E0,6E0,1E0,5E0,7E0,1.3E1,6E0,2E0,2E0,2E0,2E0,1E0,4E0,5E0,3E0,5E0,2E0,1E0,7E0,7E0],"tree_param":{"num_deleted":"0","num_feature":"17","num_nodes":"159","size_leaf_vector":"1"}},{"base_weights":[1.1052466E1,2.0262598E2,-5.2527447E1,2.8383527E2,-3.16167E2,-2.1148003E2,7.011692E1,2.373408E2,8.1730444E2,-4.8387726E2,1.4440186E1,1.0557488E2,-2.5146745E2,-1.5229442E2,1.04862175E2,2.637287E2,-2.7711042E1,1.1721206E3,-6.178598E0,-2.8236906E1,-1.9893311E0,9.919708E0,-1.1300919E2,2.598945E2,-1.7056786E1,-2.191729E1,-3.0945618E2,-3.8943924E2,1.7436241E2,1.4910252E2,-6.628223E1,-1.6552916E1,2.822456E2,7.143803E1,1.6471022E1,1.4527284E-1,-8.620963E0,3.7093967E2,-2.4413657E0,1.4155351E2,-1.6478941E2,-1.12455635E2,-3.6268558E2,-2.1593235E1,-1.6063347E2,1.6793259E1,-1.5292964E2,-1.475747E2,2.257314E2,4.1626114E2,-2.1293439E2,3.8719626E2,1.4220801E2,1.0414136E2,2.3915174E1,-1.0427031E2,4.1344492E2,1.2970572E1,-2.5024095E2,-2.5478326E2,3.0705927E2,-1.4934496E2,-3.8506015E2,-1.0680512E0,-1.0979459E1,-1.609303E1,4.6233063E0,-2.3611368E2,3.934253E1,2.862657E2,5.5776108E1,-1.3195166E2,4.128601E1,3.9447144E1,-3.3123938E2,4.410375E2,5.1319103E1,2.1480307E2,-4.1336002E2,6.36474E0,1.4458618E0,-7.466667E0,1.8995453E0,6.326425E0,2.3345379E1,3.8679414E0,-3.080922E2,-3.4820203E2,1.1040072E2,1.2884644E2,2.1042444E1,-2.6909424E1,-1.0191768E1,-3.945369E2,-1.4977418E-1,-3.247758E1,-2.7775754E2,1.3288081E1,-1.378319E1,3.3271252E2,3.566588E1,2.170143E2,-1.5274364E2,-9.183051E0,-7.13324E-1,-1.0605585E2,2.2030208E2,-2.7812109E1,-1.2320318E2,2.3281977E1,-3.120224E0,1.3853258E1,-2.1291628E1,2.5707336E1,3.039458E0,-1.4723634E0,-2.9529638E1,-1.9426365E1,-3.5668142E0,1.198877E0,-2.289822E1,-1.14704895E1,1.9750544E1,1.1185907E1,-1.5224243E0,-6.9514313E0,4.9332247E0,-2.3112797E1,-1.3786275E1,-6.3446383E0,3.9088197E0,-6.414529E0,-2.1625929E1,2.621254E1,1.3089838E1,-4.114696E0,1.2984843E1,-1.19375305E1,1.8039968E1,-9.931903E0,-5.0201416E-1,-6.905674E0,-2.4707337E-1,1.54826355E1,1.0400208E0,2.161342E0,-1.294162E1],"categories":[0,0,0,0,0,0],"categories_nodes":[0,5,29,49,86,106],"categories_segments":[0,1,2,3,4,5],"categories_sizes":[1,1,1,1,1,1],"default_left":[1,0,0,0,0,1,0,0,0,0,0,0,0,0,0,0,0,0,0,0,0,0,0,0,0,0,0,0,0,1,0,0,0,0,0,0,0,0,0,0,0,0,0,0,0,0,0,0,0,1,0,0,0,0,0,0,0,0,0,0,0,0,0,0,0,0,0,0,0,0,0,0,0,0,0,0,0,0,0,0,0,0,0,0,0,0,1,0,0,0,0,0,0,0,0,0,0,0,0,0,0,0,0,0,0,0,1,0,0,0,0,0,0,0,0,0,0,0,0,0,0,0,0,0,0,0,0,0,0,0,0,0,0,0,0,0,0,0,0,0,0,0,0,0,0,0,0],"id":2,"left_children":[1,3,5,7,9,11,13,15,17,19,21,23,25,27,29,31,-1,33,-1,-1,-1,-1,35,37,-1,39,41,43,45,47,49,-1,51,-1,-1,-1,-1,53,-1,55,57,59,61,-1,63,-1,65,67,69,71,73,75,77,79,-1,81,83,-1,85,87,89,91,93,-1,-1,-1,-1,95,97,99,101,103,-1,105,107,109,111,113,115,-1,-1,-1,-1,-1,-1,-1,117,119,121,123,-1,125,-1,127,-1,129,131,-1,-1,133,135,137,139,-1,-1,141,143,-1,145,-1,-1,-1,-1,-1,-1,-1,-1,-1,-1,-1,-1,-1,-1,-1,-1,-1,-1,-1,-1,-1,-1,-1,-1,-1,-1,-1,-1,-1,-1,-1,-1,-1,-1,-1,-1,-1,-1],"loss_changes":[3.0800608E6,2.7439805E6,3.7188102E6,1.1702055E6,5.0600344E5,1.0788395E6,8.505656E5,1.2323212E6,1.4801935E6,1.9298812E5,1.1619965E5,7.780214E5,9.782555E5,1.2298782E6,7.2160256E5,6.55134E5,0E0,1.781485E5,0E0,0E0,0E0,0E0,2.1160445E4,2.9236844E5,0E0,3.9701325E5,5.779015E5,1.7992875E4,4.2137375E5,1.7383658E6,1.5039569E6,0E0,6.79789E5,0E0,0E0,0E0,0E0,1.2205575E5,0E0,5.778091E5,3.911529E5,9.141535E5,1.6207E5,0E0,1.994207E4,0E0,1.5412603E5,2.7408066E5,6.0132025E5,1.2313085E6,4.9079438E5,4.8372E5,1.01641525E6,1.5440762E3,0E0,3.7726918E4,2.280125E3,0E0,1.7545003E5,4.1370706E5,2.6890219E4,3.4544266E4,1.472675E5,0E0,0E0,0E0,0E0,8.426125E4,5.0120153E5,5.0027475E5,6.0471044E5,1.5636074E4,0E0,1.8125392E5,4.4636512E5,3.26314E5,6.565589E5,9.3691025E5,1.867344E5,0E0,0E0,0E0,0E0,0E0,0E0,0E0,1.0558831E5,3.7864275E5,3.8075994E5,5.2149613E4,0E0,5.595493E4,0E0,1.94376E5,0E0,4.126226E4,1.5269688E5,0E0,0E0,3.65327E5,2.3278467E5,7.4146294E5,5.0399906E4,0E0,0E0,1.2283469E4,4.7035906E4,0E0,1.6919794E5,0E0,0E0,0E0,0E0,0E0,0E0,0E0,0E0,0E0,0E0,0E0,0E0,0E0,0E0,0E0,0E0,0E0,0E0,0E0,0E0,0E0,0E0,0E0,0E0,0E0,0E0,0E0,0E0,0E0,0E0,0E0,0E0,0E0,0E0,0E0,0E0,0E0,0E0],"parents":[2147483647,0,0,1,1,2,2,3,3,4,4,5,5,6,6,7,7,8,8,9,9,10,10,11,11,12,12,13,13,14,14,15,15,17,17,22,22,23,23,25,25,26,26,27,27,28,28,29,29,30,30,32,32,37,37,39,39,40,40,41,41,42,42,44,44,46,46,47,47,48,48,49,49,50,50,51,51,52,52,53,53,55,55,56,56,58,58,59,59,60,60,61,61,62,62,67,67,68,68,69,69,70,70,71,71,73,73,74,74,75,75,76,76,77,77,78,78,86,86,87,87,88,88,89,89,91,91,93,93,95,95,96,96,99,99,100,100,101,101,102,102,105,105,106,106,108,108],"right_children":[2,4,6,8,10,12,14,16,18,20,22,24,26,28,30,32,-1,34,-1,-1,-1,-1,36,38,-1,40,42,44,46,48,50,-1,52,-1,-1,-1,-1,54,-1,56,58,60,62,-1,64,-1,66,68,70,72,74,76,78,80,-1,82,84,-1,86,88,90,92,94,-1,-1,-1,-1,96,98,100,102,104,-1,106,108,110,112,114,116,-1,-1,-1,-1,-1,-1,-1,118,120,122,124,-1,126,-1,128,-1,130,132,-1,-1,134,136,138,140,-1,-1,142,144,-1,146,-1,-1,-1,-1,-1,-1,-1,-1,-1,-1,-1,-1,-1,-1,-1,-1,-1,-1,-1,-1,-1,-1,-1,-1,-1,-1,-1,-1,-1,-1,-1,-1,-1,-1,-1,-1,-1,-1],"split_conditions":[NaN,1E0,2.4207E4,8.194667E-1,2.422E4,NaN,1.6744359E-1,6.6406864E-1,1.904762E-1,7.0212764E-1,1.4285715E-1,8.5106385E-1,1.3693827E-1,3.3333334E-1,3.0496454E-1,-9.9561715E-1,-2.7711042E1,1E0,-6.178598E0,-2.8236906E1,-1.9893311E0,9.919708E0,1.904762E-1,1.904762E-1,-1.7056786E1,-5.8677757E-1,-7.1453995E-1,1.6487041E-1,2.0534916E-1,NaN,1.9056498E-1,-1.6552916E1,2.4213E4,7.143803E1,1.6471022E1,1.4527284E-1,-8.620963E0,1.8437442E-1,-2.4413657E0,7.111691E-2,2.5247063E-2,-8.423023E-1,9.52381E-2,-2.1593235E1,1.4285715E-1,1.6793259E1,2.3809524E-1,2.7659574E-1,2.4229E4,NaN,-4.334627E-1,8.660254E-1,3.0496454E-1,1.1635279E-1,2.3915174E1,3.580086E-2,7.5177306E-1,1.2970572E1,7.0212764E-1,8.1560284E-1,2.451613E-1,-8.660254E-1,1E0,-1.0680512E0,-1.0979459E1,-1.609303E1,4.6233063E0,-1.0722746E0,-3.8235775E-1,5.8269626E-1,-3.8235775E-1,9.52381E-2,4.128601E1,-8.167498E-1,3.1205675E-1,1.4063154E0,7.111691E-2,-2.290429E-1,1.1202685E-1,6.36474E0,1.4458618E0,-7.466667E0,1.8995453E0,6.326425E0,2.3345379E1,3.8679414E0,NaN,-5E-1,4.761905E-2,-8.167498E-1,2.1042444E1,4.761905E-2,-1.0191768E1,6.666667E-1,-1.4977418E-1,2.8644416E-1,2.5531915E-1,1.3288081E1,-1.378319E1,-5.6122506E-1,-3.5680526E-1,1.8370315E-1,8.660254E-1,-9.183051E0,-7.13324E-1,3.1914893E-1,NaN,-2.7812109E1,2.0534916E-1,2.3281977E1,-3.120224E0,1.3853258E1,-2.1291628E1,2.5707336E1,3.039458E0,-1.4723634E0,-2.9529638E1,-1.9426365E1,-3.5668142E0,1.198877E0,-2.289822E1,-1.14704895E1,1.9750544E1,1.1185907E1,-1.5224243E0,-6.9514313E0,4.9332247E0,-2.3112797E1,-1.3786275E1,-6.3446383E0,3.9088197E0,-6.414529E0,-2.1625929E1,2.621254E1,1.3089838E1,-4.114696E0,1.2984843E1,-1.19375305E1,1.8039968E1,-9.931903E0,-5.0201416E-1,-6.905674E0,-2.4707337E-1,1.54826355E1,1.0400208E0,2.161342E0,-1.294162E1],"split_indices":[12,7,6,2,6,13,2,2,5,4,5,4,2,4,4,16,0,2,0,0,0,0,5,5,0,16,16,2,16,15,2,0,6,0,0,0,0,2,0,2,2,16,5,0,5,0,5,4,6,14,16,8,4,2,0,2,4,0,4,4,2,7,2,0,0,0,0,16,16,2,16,5,0,16,4,16,2,16,2,0,0,0,0,0,0,0,14,8,5,16,0,5,0,4,0,2,4,0,0,16,16,2,7,0,0,4,14,0,16,0,0,0,0,0,0,0,0,0,0,0,0,0,0,0,0,0,0,0,0,0,0,0,0,0,0,0,0,0,0,0,0,0,0,0,0,0,0],"split_type":[1,0,0,0,0,1,0,0,0,0,0,0,0,0,0,0,0,0,0,0,0,0,0,0,0,0,0,0,0,1,0,0,0,0,0,0,0,0,0,0,0,0,0,0,0,0,0,0,0,1,0,0,0,0,0,0,0,0,0,0,0,0,0,0,0,0,0,0,0,0,0,0,0,0,0,0,0,0,0,0,0,0,0,0,0,0,1,0,0,0,0,0,0,0,0,0,0,0,0,0,0,0,0,0,0,0,1,0,0,0,0,0,0,0,0,0,0,0,0,0,0,0,0,0,0,0,0,0,0,0,0,0,0,0,0,0,0,0,0,0,0,0,0,0,0,0,0],"sum_hessian":[2.51E2,6.2E1,1.89E2,5.4E1,8E0,8.2E1,1.07E2,5.1E1,3E0,5E0,3E0,9E0,7.3E1,1.4E1,9.3E1,5E1,1E0,2E0,1E0,4E0,1E0,1E0,2E0,7E0,2E0,1.5E1,5.8E1,8E0,6E0,7.4E1,1.9E1,1E0,4.9E1,1E0,1E0,1E0,1E0,5E0,2E0,7E0,8E0,1.3E1,4.5E1,6E0,2E0,4E0,2E0,1.5E1,5.9E1,4E0,1.5E1,2.7E1,2.2E1,2E0,3E0,4E0,3E0,1E0,7E0,1E1,3E0,5E0,4E1,1E0,1E0,1E0,1E0,1E1,5E0,4.3E1,1.6E1,2E0,2E0,5E0,1E1,2.3E1,4E0,2E1,2E0,1E0,1E0,3E0,1E0,1E0,2E0,1E0,6E0,8E0,2E0,2E0,1E0,2E0,3E0,3.9E1,1E0,2E0,8E0,3E0,2E0,3.6E1,7E0,9E0,7E0,1E0,1E0,3E0,2E0,4E0,6E0,2.2E1,1E0,3E0,1E0,6E0,1.4E1,1E0,1E0,4E0,2E0,2E0,6E0,1E0,1E0,1E0,1E0,1E0,1E0,2.3E1,1.6E1,1E0,1E0,5E0,3E0,8E0,2.8E1,5E0,2E0,2E0,7E0,5E0,2E0,2E0,1E0,1E0,1E0,3E0,3E0],"tree_param":{"num_deleted":"0","num_feature":"17","num_nodes":"147","size_leaf_vector":"1"}},{"base_weights":[3.222707E1,2.1568243E2,-2.788872E1,3.54855E2,-2.9043945E2,8.288962E1,-1.4733714E2,9.507102E2,3.0008948E2,-1.7629102E2,-3.441348E1,-2.0066978E1,1.1056104E2,-6.977345E1,-3.5158942E2,1.6945967E1,6.965208E1,1.8133734E2,4.4298596E2,1.246453E1,-2.3253036E2,2.0641605E2,-3.7087044E1,1.2559441E2,-1.510873E2,1.6744157E2,-3.9980957E2,4.8830994E2,1.8784184E1,5.0541727E2,-6.0442343E0,-3.961885E2,-2.8408E0,-2.2509777E1,2.4571497E2,-1.3698175E2,3.3331433E2,-4.974418E0,3.5471167E2,-4.721444E2,-6.3403587E1,1.664446E1,-4.0863433E0,-3.0979065E2,-6.9792706E2,6.473306E2,1.9982312E2,-2.2383714E2,4.106958E2,5.272886E2,2.2465577E0,-2.2464466E1,-1.9395965E0,1.0670279E2,-7.397599E0,-1.5326312E2,1.388962E2,5.4729974E2,2.028978E2,3.7146336E1,-1.9418858E2,2.2294321E1,-4.04587E1,-1.4144913E2,2.233125E2,7.70942E1,4.344018E2,-6.756485E2,-1.8994957E2,1.2575231E2,-1.3457994E2,-3.3769144E2,6.2056212E0,-3.886083E1,-9.519229E0,1.4992098E1,4.47436E1,-1.7326263E0,2.6710516E2,-8.211787E1,-2.61088E1,4.9391257E2,-4.2955384E0,4.3563814E0,5.4690155E2,-9.3811035E-1,1.0740638E1,5.721399E0,-2.2968694E2,1.1043622E1,-4.7252197E0,2.9215515E0,3.1669363E1,-2.9065244E2,2.5437173E2,3.105032E2,-8.531323E1,-2.379667E1,-1.3413551E2,-2.4153564E0,-6.1904603E-1,-2.9224243E1,-1.967829E1,-4.8291016E-1,3.3533093E2,-5.8391266E0,1.1621192E1,3.7712433E0,2.455561E1,-1.2950203E1,-4.0960987E1,-2.1800024E1,2.0143486E2,-1.378268E2,3.3371265E2,3.2280518E1,-2.0430833E2,-3.584325E2,1.4097137E0,1.8764046E1,-1.435553E0,2.9241034E1,-1.1060111E1,2.9884708E1,7.815287E0,3.0118368E1,1.6778769E1,1.4164124E-1,-2.1199952E-1,-1.6397772E1,-2.742808E0,-2.014172E1,3.951883E0,3.8399494E1,9.902923E0,2.0516382E1,2.7713592E0,-1.1276074E1,1.8898407E1,-3.6065686E0,-1.9756063E1,-7.186667E0,3.4113941E0,1.0357831E1,-1.039405E1,1.8977705E1,5.0665374E0,2.8637238E0,1.2243891E1,-1.5047958E1,6.2812643E0,2.4053732E1,-1.1564128E0,-8.516553E0,9.78717E0,-5.3547235E0,-1.986623E1,-1.8708853E1,-1.87576E0],"categories":[0,0,0,0,0,0,0],"categories_nodes":[0,21,36,59,70,104,115],"categories_segments":[0,1,2,3,4,5,6],"categories_sizes":[1,1,1,1,1,1,1],"default_left":[1,0,0,0,0,0,0,0,0,0,0,0,0,0,0,0,0,0,0,0,0,1,0,0,0,0,0,0,0,0,0,0,0,0,0,0,1,0,0,0,0,0,0,0,0,0,0,0,0,0,0,0,0,0,0,0,0,0,0,1,0,0,0,0,0,0,0,0,0,0,1,0,0,0,0,0,0,0,0,0,0,0,0,0,0,0,0,0,0,0,0,0,0,0,0,0,0,0,0,0,0,0,0,0,1,0,0,0,0,0,0,0,0,0,0,1,0,0,0,0,0,0,0,0,0,0,0,0,0,0,0,0,0,0,0,0,0,0,0,0,0,0,0,0,0,0,0,0,0,0,0,0,0,0,0,0,0,0,0],"id":3,"left_children":[1,3,5,7,9,11,13,15,17,19,-1,-1,21,23,25,-1,-1,27,29,-1,31,33,35,37,39,41,43,45,47,49,-1,51,53,55,57,59,61,63,65,67,69,-1,-1,71,73,75,77,79,81,83,-1,-1,-1,85,-1,87,89,91,93,95,97,-1,99,101,103,105,107,109,111,113,115,117,-1,-1,-1,-1,-1,-1,119,121,-1,123,-1,-1,125,127,-1,-1,129,-1,-1,-1,-1,131,133,135,137,-1,139,-1,-1,141,-1,143,145,-1,-1,-1,-1,-1,-1,-1,147,149,151,153,155,157,-1,-1,-1,-1,-1,-1,-1,-1,-1,-1,-1,-1,-1,-1,-1,-1,-1,-1,-1,-1,-1,-1,-1,-1,-1,-1,-1,-1,-1,-1,-1,-1,-1,-1,-1,-1,-1,-1,-1,-1,-1],"loss_changes":[2.994756E6,4.822429E6,2.7248338E6,1.444215E6,5.598396E5,1.4780988E6,1.5438818E6,6.1032825E5,7.68133E5,3.691152E5,0E0,0E0,1.4512419E6,1.1786618E6,7.42694E5,0E0,0E0,1.437909E6,8.355675E5,0E0,4.499613E5,5.633165E5,1.5627045E6,6.599071E5,1.4339412E6,1.50879E5,4.5469375E5,3.2940225E5,1.9936514E6,1.777365E5,0E0,1.154175E5,1.1116289E5,2.3233138E5,5.7334325E5,3.3593688E5,3.9672775E5,4.989182E5,1.4349706E5,5.0336675E5,5.8238775E5,0E0,0E0,2.961425E5,5.324375E4,2.477865E5,8.8135875E4,5.0676488E5,3.7304038E5,1.163745E5,0E0,0E0,0E0,4.674973E4,0E0,1.4903045E5,1.1653992E5,2.1550362E5,1.2933726E6,3.277665E5,3.591515E5,0E0,6.3012207E1,2.7143594E5,1.5057719E5,1.1748745E5,8.5104375E4,1.467275E5,6.656287E5,7.0376256E5,3.6727744E5,1.61883E5,0E0,0E0,0E0,0E0,0E0,0E0,1.3877531E5,1.0569708E6,0E0,1.5183875E5,0E0,0E0,8.845E3,4.9364677E1,0E0,0E0,6.791141E4,0E0,0E0,0E0,0E0,2.3920181E5,1.1205282E6,5.3645156E4,5.3993106E5,0E0,3.275077E5,0E0,0E0,9.907985E4,0E0,1.7225603E5,2.932375E3,0E0,0E0,0E0,0E0,0E0,0E0,0E0,4.7630156E3,2.9567344E5,3.7921994E5,3.6453594E5,3.7025362E5,8.196375E4,0E0,0E0,0E0,0E0,0E0,0E0,0E0,0E0,0E0,0E0,0E0,0E0,0E0,0E0,0E0,0E0,0E0,0E0,0E0,0E0,0E0,0E0,0E0,0E0,0E0,0E0,0E0,0E0,0E0,0E0,0E0,0E0,0E0,0E0,0E0,0E0,0E0,0E0,0E0,0E0,0E0],"parents":[2147483647,0,0,1,1,2,2,3,3,4,4,5,5,6,6,7,7,8,8,9,9,12,12,13,13,14,14,17,17,18,18,20,20,21,21,22,22,23,23,24,24,25,25,26,26,27,27,28,28,29,29,31,31,32,32,33,33,34,34,35,35,36,36,37,37,38,38,39,39,40,40,43,43,44,44,45,45,46,46,47,47,48,48,49,49,53,53,55,55,56,56,57,57,58,58,59,59,60,60,62,62,63,63,64,64,65,65,66,66,67,67,68,68,69,69,70,70,71,71,78,78,79,79,81,81,84,84,85,85,88,88,93,93,94,94,95,95,96,96,98,98,101,101,103,103,104,104,112,112,113,113,114,114,115,115,116,116,117,117],"right_children":[2,4,6,8,10,12,14,16,18,20,-1,-1,22,24,26,-1,-1,28,30,-1,32,34,36,38,40,42,44,46,48,50,-1,52,54,56,58,60,62,64,66,68,70,-1,-1,72,74,76,78,80,82,84,-1,-1,-1,86,-1,88,90,92,94,96,98,-1,100,102,104,106,108,110,112,114,116,118,-1,-1,-1,-1,-1,-1,120,122,-1,124,-1,-1,126,128,-1,-1,130,-1,-1,-1,-1,132,134,136,138,-1,140,-1,-1,142,-1,144,146,-1,-1,-1,-1,-1,-1,-1,148,150,152,154,156,158,-1,-1,-1,-1,-1,-1,-1,-1,-1,-1,-1,-1,-1,-1,-1,-1,-1,-1,-1,-1,-1,-1,-1,-1,-1,-1,-1,-1,-1,-1,-1,-1,-1,-1,-1,-1,-1,-1,-1,-1,-1],"split_conditions":[NaN,8.660254E-1,3.0496454E-1,1.4285715E-1,5.8269626E-1,1.6487041E-1,2.3090164E-1,5.6718254E-1,3.083349E-1,2.8230468E-2,-3.441348E1,-2.0066978E1,3.7807196E-1,1.3693827E-1,-8.660254E-1,1.6945967E1,6.965208E1,1.6487041E-1,6.908462E-1,1.246453E1,1.8370315E-1,NaN,2.6241136E-1,8.660254E-1,1.9056498E-1,3.6625025E-1,8.5106385E-1,1.5424421E-1,3.0755907E-1,2.3809524E-1,-6.0442343E0,7.0212764E-1,1.904762E-1,1.4285715E-1,-1.1744845E0,-6.1233E-1,NaN,-3.8235775E-1,2.8230468E-2,-6.63435E-1,2.451613E-1,1.664446E1,-4.0863433E0,1E0,2.3809524E-1,-3.8235775E-1,2.5247063E-2,5E-1,8.660254E-1,-8.167498E-1,2.2465577E0,-2.2464466E1,-1.9395965E0,2.797688E-1,-7.397599E0,1.7333582E-1,3.58664E-1,1.8362856E-1,-8.678548E-1,NaN,1.4285715E-1,2.2294321E1,9.52381E-2,-7.9119736E-1,3.4042552E-1,1.4285715E-1,7.0212764E-1,9.52381E-2,6.666667E-1,1.4285715E-1,NaN,8.1560284E-1,6.2056212E0,-3.886083E1,-9.519229E0,1.4992098E1,4.47436E1,-1.7326263E0,7.111691E-2,2.4113475E-1,-2.61088E1,2.7201194E-1,-4.2955384E0,4.3563814E0,1.2869173E-1,2.3501772E-1,1.0740638E1,5.721399E0,-8.167498E-1,1.1043622E1,-4.7252197E0,2.9215515E0,3.1669363E1,1.9037852E-1,-7.6564485E-1,1E0,-6.378825E-1,-2.379667E1,1.329658E0,-2.4153564E0,-6.1904603E-1,3.580086E-2,-1.967829E1,1.904762E-1,NaN,-5.8391266E0,1.1621192E1,3.7712433E0,2.455561E1,-1.2950203E1,-4.0960987E1,-2.1800024E1,1.904762E-1,2.4366958E-1,1.904762E-1,NaN,-5E-1,5.7769907E-1,1.4097137E0,1.8764046E1,-1.435553E0,2.9241034E1,-1.1060111E1,2.9884708E1,7.815287E0,3.0118368E1,1.6778769E1,1.4164124E-1,-2.1199952E-1,-1.6397772E1,-2.742808E0,-2.014172E1,3.951883E0,3.8399494E1,9.902923E0,2.0516382E1,2.7713592E0,-1.1276074E1,1.8898407E1,-3.6065686E0,-1.9756063E1,-7.186667E0,3.4113941E0,1.0357831E1,-1.039405E1,1.8977705E1,5.0665374E0,2.8637238E0,1.2243891E1,-1.5047958E1,6.2812643E0,2.4053732E1,-1.1564128E0,-8.516553E0,9.78717E0,-5.3547235E0,-1.986623E1,-1.8708853E1,-1.87576E0],"split_indices":[12,7,4,5,2,2,16,2,2,2,0,0,2,2,8,0,0,2,16,0,2,15,4,7,2,2,4,16,16,5,0,4,5,5,16,16,11,16,2,16,2,0,0,7,5,16,2,7,8,16,0,0,0,2,0,2,16,2,16,11,5,0,5,16,4,5,4,5,4,5,11,4,0,0,0,0,0,0,2,4,0,2,0,0,16,2,0,0,16,0,0,0,0,2,16,2,16,0,16,0,0,2,0,5,14,0,0,0,0,0,0,0,5,2,5,15,8,2,0,0,0,0,0,0,0,0,0,0,0,0,0,0,0,0,0,0,0,0,0,0,0,0,0,0,0,0,0,0,0,0,0,0,0,0,0,0,0,0,0],"split_type":[1,0,0,0,0,0,0,0,0,0,0,0,0,0,0,0,0,0,0,0,0,1,0,0,0,0,0,0,0,0,0,0,0,0,0,0,1,0,0,0,0,0,0,0,0,0,0,0,0,0,0,0,0,0,0,0,0,0,0,1,0,0,0,0,0,0,0,0,0,0,1,0,0,0,0,0,0,0,0,0,0,0,0,0,0,0,0,0,0,0,0,0,0,0,0,0,0,0,0,0,0,0,0,0,1,0,0,0,0,0,0,0,0,0,0,1,0,0,0,0,0,0,0,0,0,0,0,0,0,0,0,0,0,0,0,0,0,0,0,0,0,0,0,0,0,0,0,0,0,0,0,0,0,0,0,0,0,0,0],"sum_hessian":[2.7E2,6.6E1,2.04E2,5.2E1,1.4E1,1.06E2,9.8E1,3E0,4.9E1,1.2E1,2E0,5E0,1.01E2,7.2E1,2.6E1,2E0,1E0,2.8E1,2.1E1,1E0,1.1E1,6.1E1,4E1,2.1E1,5.1E1,2E0,2.4E1,9E0,1.9E1,1.9E1,2E0,6E0,5E0,9E0,5.2E1,3.2E1,8E0,1.4E1,7E0,1E1,4.1E1,1E0,1E0,2E1,4E0,5E0,4E0,1.2E1,7E0,1.8E1,1E0,5E0,1E0,3E0,2E0,5E0,4E0,5E0,4.7E1,8E0,2.4E1,6E0,2E0,9E0,5E0,2E0,5E0,5E0,5E0,1.1E1,3E1,1.9E1,1E0,3E0,1E0,3E0,2E0,1E0,3E0,9E0,3E0,6E0,1E0,1E0,1.7E1,2E0,1E0,1E0,4E0,3E0,1E0,1E0,4E0,4E0,4.3E1,2E0,6E0,3E0,2.1E1,1E0,1E0,7E0,2E0,2E0,3E0,1E0,1E0,1E0,4E0,2E0,3E0,3E0,2E0,5E0,6E0,9E0,2.1E1,1.8E1,1E0,2E0,1E0,1E0,8E0,4E0,2E0,1.2E1,5E0,1E0,1E0,2E0,2E0,3E0,1E0,3E0,4E1,1E0,1E0,5E0,1E0,1.8E1,3E0,3E0,4E0,1E0,1E0,2E0,1E0,1E0,1E0,3E0,2E0,4E0,2E0,4E0,5E0,1.5E1,6E0,1.7E1,1E0],"tree_param":{"num_deleted":"0","num_feature":"17","num_nodes":"159","size_leaf_vector":"1"}},{"base_weights":[1.0834322E1,2.178422E2,-5.11252E1,3.810489E2,2.0172949E1,-1.7465083E2,5.6732956E1,-1.6562742E1,4.117418E2,4.4167496E2,-8.179446E1,-1.4248561E2,-4.840451E2,-4.0965656E1,1.3802333E2,4.4163535E2,-1.4368637E1,2.9305674E1,-7.0129366E0,-2.6809216E2,8.373175E1,-3.4792532E2,-9.128028E1,-1.8288666E0,-2.6770319E1,1.1098486E2,-1.8059952E2,2.2944327E2,4.229017E1,8.6376447E2,3.7063028E2,-3.651338E2,1.9984144E1,2.1515372E2,-1.493058E1,-1.12787964E2,-4.296868E2,8.478855E1,-1.7579872E2,3.2457943E1,6.3491547E1,-3.2680397E1,-9.769418E1,1.1613596E2,5.5484814E2,1.9751398E1,-7.8215985E0,1.231045E1,6.7910774E1,5.8879845E1,4.163273E2,-2.0598439E2,-2.9607456E1,3.6471237E2,-1.3775201E2,-2.4153972E2,1.3274271E1,-5.3847156E2,-1.4793684E2,-3.887345E1,1.5311049E2,-5.576346E1,-3.4462225E2,3.0422995E2,-1.1904547E1,4.4043922E1,-3.1470575E2,1.9815228E2,-8.291774E1,4.1518E1,-1.8112483E2,-1.7793872E2,1.0602435E2,1.1793754E1,-1.37742E2,5.6673956E2,2.4692111E2,-3.276828E2,-6.742879E1,2.3019556E1,2.589205E0,-1.3659327E1,6.713788E0,1.7667725E0,-1.5979619E1,-9.791207E0,-3.0419798E1,-1.0552112E1,-3.5519165E1,3.231072E2,8.605172E0,-8.3431816E1,1.9357183E1,-3.9285538E2,-1.11705246E2,5.045935E1,2.092502E1,7.455094E1,-2.861812E2,-1.2997342E2,4.5287677E2,-4.5130185E2,1.5445247E2,-1.5605367E0,5.1220966E2,-1.8288092E1,7.232394E1,-1.1023804E0,-1.2481982E1,-8.130014E1,-2.9697272E2,4.9451968E2,-4.642696E0,-2.0482836E1,1.0152185E1,4.7757614E1,2.273879E1,5.882505E0,2.2803946E1,-4.1482515E0,-1.9080019E1,-7.565328E0,1.9462626E0,-5.3660126E0,2.7020752E0,2.0757654E1,2.9119332E0,-8.42921E0,8.128511E0,4.3639584E0,-9.342907E0,-7.477037E0,-2.2810913E1,-7.3576674E0,7.5217897E-1,9.560529E0,-5.7760773E0,-1.6629578E0,2.764072E1,-1.9812868E1,3.8530853E0,1.2877106E1,-1.1661537E1,1.2269348E0,2.769133E1,-2.8514256E1,-9.487366E0,-1.0804291E0,1.2664365E1,3.541333E0,-5.8533974E0,2.9006363E1,2.6175935E0,9.841913E0,-1.9571396E0,4.0318847E0,-9.729519E0,-2.2776794E-1,-1.844691E1,1.0473419E1,3.374184E1,-4.632833E0,1.3027992E1],"categories":[0,0,0,0,0,0,0,0,0,0],"categories_nodes":[0,8,11,12,22,25,63,100,106,110],"categories_segments":[0,1,2,3,4,5,6,7,8,9],"categories_sizes":[1,1,1,1,1,1,1,1,1,1],"default_left":[1,0,0,0,0,0,0,0,1,0,0,1,1,0,0,0,0,0,0,0,0,0,1,0,0,1,0,0,0,0,0,0,0,0,0,0,0,0,0,0,0,0,0,0,0,0,0,0,0,0,0,0,0,0,0,0,0,0,0,0,0,0,0,1,0,0,0,0,0,0,0,0,0,0,0,0,0,0,0,0,0,0,0,0,0,0,0,0,0,0,0,0,0,0,0,0,0,0,0,0,1,0,0,0,0,0,1,0,0,0,1,0,0,0,0,0,0,0,0,0,0,0,0,0,0,0,0,0,0,0,0,0,0,0,0,0,0,0,0,0,0,0,0,0,0,0,0,0,0,0,0,0,0,0,0,0,0,0,0,0,0,0,0],"id":4,"left_children":[1,3,5,7,9,11,13,-1,15,17,19,21,23,25,27,29,-1,-1,-1,31,33,35,37,-1,-1,39,41,43,45,47,49,51,-1,53,-1,55,57,59,61,-1,63,-1,65,67,69,-1,71,-1,-1,73,75,77,-1,79,81,83,-1,85,87,-1,89,91,93,95,97,99,101,103,105,-1,107,109,111,-1,113,115,117,119,121,-1,-1,-1,-1,-1,-1,-1,-1,-1,123,125,127,129,-1,131,133,135,-1,137,139,141,143,145,147,149,151,-1,153,-1,-1,155,157,159,161,-1,-1,-1,-1,-1,-1,-1,-1,-1,-1,-1,-1,-1,-1,-1,-1,-1,-1,-1,-1,-1,-1,-1,-1,-1,-1,-1,-1,-1,-1,-1,-1,-1,-1,-1,-1,-1,-1,-1,-1,-1,-1,-1,-1,-1,-1,-1,-1,-1,-1],"loss_changes":[3.5639692E6,2.0570135E6,2.8610832E6,9.01585E5,1.3255106E6,9.2620375E5,9.1897925E5,0E0,8.3748E5,5.865291E5,7.9337656E5,9.360456E5,1.8725875E5,1.144568E6,5.416676E5,6.68982E5,0E0,0E0,0E0,9.2356144E5,7.677239E5,2.975895E5,1.1309855E6,0E0,0E0,6.233353E5,1.034164E6,1.1154262E6,5.6873175E5,8.8699875E5,4.0286875E5,2.7544925E5,0E0,6.30821E5,0E0,3.5634544E5,3.1879175E5,1.5918164E6,1.01428625E6,0E0,4.5739006E5,0E0,7.82831E5,4.245716E5,1.772553E6,0E0,5.8051306E5,0E0,0E0,2.0649556E5,5.2256E5,1.1280072E5,0E0,2.1568375E5,1.8405011E5,1.1934716E5,0E0,9.6496E4,2.7974766E4,0E0,5.867899E5,4.1219003E5,1.920365E5,1.5287362E5,4.955895E5,1.197166E6,7.105566E5,1.1297825E6,3.7772684E5,0E0,2.7193477E4,1.13895375E5,7.7618125E5,0E0,3.611722E5,1.3096575E5,3.2487475E5,2.1118875E4,5.0493344E4,0E0,0E0,0E0,0E0,0E0,0E0,0E0,0E0,0E0,2.5091408E4,2.4400275E5,4.093403E5,5.45989E5,0E0,1.9386775E5,2.4678742E4,9.2174984E4,0E0,8.433722E5,2.3045816E5,5.402325E5,2.0261306E5,1.4075488E5,5.767607E4,1.0862662E5,1.8825638E5,0E0,9.098002E4,0E0,0E0,1.6245914E5,1.03539125E5,6.42415E4,3.7426547E5,0E0,0E0,0E0,0E0,0E0,0E0,0E0,0E0,0E0,0E0,0E0,0E0,0E0,0E0,0E0,0E0,0E0,0E0,0E0,0E0,0E0,0E0,0E0,0E0,0E0,0E0,0E0,0E0,0E0,0E0,0E0,0E0,0E0,0E0,0E0,0E0,0E0,0E0,0E0,0E0,0E0,0E0,0E0,0E0,0E0,0E0,0E0,0E0,0E0,0E0],"parents":[2147483647,0,0,1,1,2,2,3,3,4,4,5,5,6,6,8,8,9,9,10,10,11,11,12,12,13,13,14,14,15,15,19,19,20,20,21,21,22,22,25,25,26,26,27,27,28,28,29,29,30,30,31,31,33,33,35,35,36,36,37,37,38,38,40,40,42,42,43,43,44,44,46,46,49,49,50,50,51,51,53,53,54,54,55,55,57,57,58,58,60,60,61,61,62,62,63,63,64,64,65,65,66,66,67,67,68,68,70,70,71,71,72,72,74,74,75,75,76,76,77,77,78,78,88,88,89,89,90,90,91,91,93,93,94,94,95,95,97,97,98,98,99,99,100,100,101,101,102,102,103,103,104,104,106,106,109,109,110,110,111,111,112,112],"right_children":[2,4,6,8,10,12,14,-1,16,18,20,22,24,26,28,30,-1,-1,-1,32,34,36,38,-1,-1,40,42,44,46,48,50,52,-1,54,-1,56,58,60,62,-1,64,-1,66,68,70,-1,72,-1,-1,74,76,78,-1,80,82,84,-1,86,88,-1,90,92,94,96,98,100,102,104,106,-1,108,110,112,-1,114,116,118,120,122,-1,-1,-1,-1,-1,-1,-1,-1,-1,124,126,128,130,-1,132,134,136,-1,138,140,142,144,146,148,150,152,-1,154,-1,-1,156,158,160,162,-1,-1,-1,-1,-1,-1,-1,-1,-1,-1,-1,-1,-1,-1,-1,-1,-1,-1,-1,-1,-1,-1,-1,-1,-1,-1,-1,-1,-1,-1,-1,-1,-1,-1,-1,-1,-1,-1,-1,-1,-1,-1,-1,-1,-1,-1,-1,-1,-1,-1],"split_conditions":[NaN,4.741796E-1,3.3973545E-1,-9.9561715E-1,-3.0570033E-1,2.3809524E-1,1.4285715E-1,-1.6562742E1,NaN,1E0,1.797967E-1,NaN,NaN,-7.6564485E-1,1.904762E-1,1.4285715E-1,-1.4368637E1,2.9305674E1,-7.0129366E0,1E0,6.652937E-1,3.66955E-2,NaN,-1.8288666E0,-2.6770319E1,NaN,-7.1453995E-1,5E-1,3.7814805E-1,-5E-1,-5.1012015E-1,5E-1,1.9984144E1,6.9969475E-1,-1.493058E1,2.7982702E-2,2.7028745E-1,2.7982702E-2,1.4614601E-1,3.2457943E1,-1.3022468E0,-3.2680397E1,-4.334627E-1,2.0534916E-1,4.608739E-1,1.9751398E1,5.653778E-1,1.231045E1,6.7910774E1,7.154668E-2,1.5424421E-1,-5E-1,-2.9607456E1,2.3809524E-1,8.2676166E-1,-7.9119736E-1,1.3274271E1,9.52381E-2,9.52381E-2,-3.887345E1,1.2869173E-1,1.3062833E-1,3.3311152E-1,NaN,7.1648437E-1,8.660254E-1,7.33274E-1,-2.8014785E-1,3.0755907E-1,4.1518E1,5.3179854E-1,4.933859E-1,6.157466E-1,1.1793754E1,1.0639786E-1,1.9269906E-2,2.3809524E-1,6.3253623E-1,-7.572806E-2,2.3019556E1,2.589205E0,-1.3659327E1,6.713788E0,1.7667725E0,-1.5979619E1,-9.791207E0,-3.0419798E1,-1.0552112E1,3.0132282E-1,2.392521E-1,7.930561E-1,-8.167498E-1,1.9357183E1,-5E-1,1E0,3.9735436E-1,2.092502E1,6.157466E-1,8.080641E-1,3.7814805E-1,NaN,-2.0349044E-1,7.893666E-1,-3.5680526E-1,1.797967E-1,-1.8288092E1,NaN,-1.1023804E0,-1.2481982E1,2.0534916E-1,NaN,2.857143E-1,8.660254E-1,-2.0482836E1,1.0152185E1,4.7757614E1,2.273879E1,5.882505E0,2.2803946E1,-4.1482515E0,-1.9080019E1,-7.565328E0,1.9462626E0,-5.3660126E0,2.7020752E0,2.0757654E1,2.9119332E0,-8.42921E0,8.128511E0,4.3639584E0,-9.342907E0,-7.477037E0,-2.2810913E1,-7.3576674E0,7.5217897E-1,9.560529E0,-5.7760773E0,-1.6629578E0,2.764072E1,-1.9812868E1,3.8530853E0,1.2877106E1,-1.1661537E1,1.2269348E0,2.769133E1,-2.8514256E1,-9.487366E0,-1.0804291E0,1.2664365E1,3.541333E0,-5.8533974E0,2.9006363E1,2.6175935E0,9.841913E0,-1.9571396E0,4.0318847E0,-9.729519E0,-2.2776794E-1,-1.844691E1,1.0473419E1,3.374184E1,-4.632833E0,1.3027992E1],"split_indices":[12,3,3,16,16,5,5,0,11,8,16,15,13,16,5,5,0,0,0,8,16,3,11,0,0,13,16,8,3,8,16,8,0,3,0,3,3,3,3,0,16,0,16,16,16,0,3,0,0,3,16,8,0,5,3,16,0,5,5,0,16,3,16,11,3,8,3,16,16,0,3,3,3,0,3,3,5,3,16,0,0,0,0,0,0,0,0,0,3,3,16,16,0,8,8,3,0,3,3,3,11,16,3,16,16,0,11,0,0,16,11,5,8,0,0,0,0,0,0,0,0,0,0,0,0,0,0,0,0,0,0,0,0,0,0,0,0,0,0,0,0,0,0,0,0,0,0,0,0,0,0,0,0,0,0,0,0,0,0,0,0,0,0],"split_type":[1,0,0,0,0,0,0,0,1,0,0,1,1,0,0,0,0,0,0,0,0,0,1,0,0,1,0,0,0,0,0,0,0,0,0,0,0,0,0,0,0,0,0,0,0,0,0,0,0,0,0,0,0,0,0,0,0,0,0,0,0,0,0,1,0,0,0,0,0,0,0,0,0,0,0,0,0,0,0,0,0,0,0,0,0,0,0,0,0,0,0,0,0,0,0,0,0,0,0,0,1,0,0,0,0,0,1,0,0,0,1,0,0,0,0,0,0,0,0,0,0,0,0,0,0,0,0,0,0,0,0,0,0,0,0,0,0,0,0,0,0,0,0,0,0,0,0,0,0,0,0,0,0,0,0,0,0,0,0,0,0,0,0],"sum_hessian":[2.76E2,6.3E1,2.13E2,3.4E1,2.9E1,9.9E1,1.14E2,1E0,3.3E1,5E0,2.4E1,9.1E1,8E0,5.2E1,6.2E1,3.2E1,1E0,4E0,1E0,1.1E1,1.3E1,1.7E1,7.4E1,1E0,7E0,2.5E1,2.7E1,3.1E1,3.1E1,3E0,2.9E1,1E1,1E0,1E1,3E0,5E0,1.2E1,2.4E1,5E1,1E0,2.4E1,3E0,2.4E1,2.4E1,7E0,3E0,2.8E1,2E0,1E0,4E0,2.5E1,7E0,3E0,7E0,3E0,4E0,1E0,8E0,4E0,1E0,2.3E1,3E1,2E1,5E0,1.9E1,1.5E1,9E0,1.7E1,7E0,5E0,2E0,1.1E1,1.7E1,2E0,2E0,1.2E1,1.3E1,3E0,4E0,5E0,2E0,2E0,1E0,1E0,3E0,2E0,6E0,2E0,2E0,1E1,1.3E1,2.9E1,1E0,1.6E1,4E0,2E0,3E0,1.5E1,4E0,1.1E1,4E0,7E0,2E0,1.1E1,6E0,2E0,5E0,1E0,1E0,7E0,4E0,3E0,1.4E1,1E0,1E0,1E0,1.1E1,9E0,4E0,1E0,2E0,2E0,2E0,1E0,1E0,7E0,3E0,6E0,7E0,1.1E1,1.8E1,4E0,1.2E1,3E0,1E0,1E0,1E0,1.3E1,2E0,3E0,1E0,2E0,9E0,1E0,3E0,4E0,3E0,1E0,1E0,7E0,4E0,5E0,1E0,2E0,3E0,3E0,4E0,1E0,3E0,2E0,1E0,1.1E1,3E0],"tree_param":{"num_deleted":"0","num_feature":"17","num_nodes":"163","size_leaf_vector":"1"}},{"base_weights":[-6.4164805E0,-1.22023346E2,1.0677618E2,1.9962346E2,-1.9847371E2,3.215529E2,4.829334E1,2.959032E2,-3.3462444E1,-3.8227756E2,-1.5436116E2,2.7855194E1,4.0972806E2,3.0090063E2,2.5968733E1,-6.789537E1,3.4859824E2,-4.514364E2,-1.3414104E2,4.0323128E1,-2.022617E2,2.0773665E2,-3.4119278E2,2.8229599E1,2.2072014E2,4.5638348E2,-1.6219295E2,5.699159E1,-2.1662248E2,-1.9970766E1,8.787486E0,4.024207E2,-6.320868E0,-1.5704353E2,-5.709747E2,-1.0200375E1,-4.8205933E1,1.9930674E1,-1.7270846E0,-8.093706E1,-2.74352E2,-1.7505365E1,3.893269E2,-2.7493696E1,1.9042358E0,2.7777365E1,1.39777E2,3.0867971E1,2.6852124E2,-1.6730383E1,4.565912E0,-6.0313427E1,1.1380848E2,2.3496954E1,-4.0092868E2,2.8670496E2,5.401561E2,-2.9199155E2,1.2942413E1,-5.965629E2,-7.877298E0,-4.970079E0,2.6345246E0,1.12024796E2,-3.1988693E2,3.1764908E1,-2.9824728E2,2.2019796E1,-3.1103195E2,2.5094967E1,7.348942E0,-5.442627E0,1.9763601E1,-9.59869E1,5.435223E2,-1.9282452E2,1.1436608E2,3.187865E2,5.4138462E1,-4.6240472E2,-1.0334969E2,3.5018115E2,1.5428587E2,6.6701514E2,2.4654337E2,-5.317505E0,-2.4066755E1,-3.2449936E1,-1.2893996E1,-6.660258E1,1.4734624E2,-2.182599E1,3.6661134E0,3.8600577E2,-5.3454407E1,-3.6249897E1,-1.0093486E2,2.4977911E2,-1.4449962E1,-5.503534E2,-2.4557304E2,-1.1927009E1,6.1934185E1,1.0451874E0,-8.2442045E0,3.2898296E1,7.8658786E0,1.18533325E2,-3.216955E2,2.1985472E2,-2.0431921E2,5.3344006E2,1.7958107E2,-3.8427066E2,1.22654945E2,-2.7182987E1,-7.287988E0,-2.2207336E-1,-7.5291533E0,1.9906063E1,6.8786964E0,-2.4595764E0,1.0240983E1,4.6563675E1,1.8406607E1,-1.8363708E0,1.7660473E1,-2.1214173E0,1.7226044E0,5.9738803E0,-1.0969073E1,2.1750875E0,2.2218958E1,3.7115693E0,2.3259338E1,-1.5114588E1,2.318207E0,1.500591E0,-1.6459164E1,4.0697713E0,1.8873255E1,-3.1878057E1,-9.624337E0,-1.3192977E1,-4.3369713E0,-4.38854E0,6.968517E0,-1.6362585E0,2.1870646E1,-1.7429213E1,2.4246216E-2,9.3572634E-1,1.6605925E1,1.7208985E0,-1.4768547E1,6.6752534E0,3.0002378E1,1.7358456E1,4.9971008E-1,-4.6565795E0,-2.8967102E1,9.708018E0,-1.4151972E1],"categories":[0,0,0,0,0,0,0,0,0,0,0,0],"categories_nodes":[1,4,6,12,19,20,21,77,79,96,109,113],"categories_segments":[0,1,2,3,4,5,6,7,8,9,10,11],"categories_sizes":[1,1,1,1,1,1,1,1,1,1,1,1],"default_left":[0,1,0,0,1,0,1,0,0,0,0,0,1,0,0,0,0,0,0,1,1,1,0,0,0,0,0,0,0,0,0,0,0,0,0,0,0,0,0,0,0,0,0,0,0,0,0,0,0,0,0,0,0,0,0,0,0,0,0,0,0,0,0,0,0,0,0,0,0,0,0,0,0,0,0,0,0,1,0,1,0,0,0,0,0,0,0,0,0,0,0,0,0,0,0,0,1,0,0,0,0,0,0,0,0,0,0,0,0,1,0,0,0,1,0,0,0,0,0,0,0,0,0,0,0,0,0,0,0,0,0,0,0,0,0,0,0,0,0,0,0,0,0,0,0,0,0,0,0,0,0,0,0,0,0,0,0,0,0,0,0,0,0],"id":5,"left_children":[1,3,5,7,9,11,13,15,-1,17,19,21,23,25,27,29,31,33,35,37,39,41,43,-1,45,47,49,51,53,-1,-1,55,-1,57,59,-1,61,-1,63,65,67,-1,69,-1,-1,-1,71,-1,73,-1,-1,75,77,-1,79,81,83,85,-1,87,-1,-1,-1,89,91,93,95,97,99,-1,-1,101,-1,103,105,107,109,111,113,115,117,119,121,123,125,127,-1,-1,-1,129,131,-1,-1,133,135,-1,137,139,-1,141,143,-1,145,-1,-1,-1,-1,147,149,151,153,155,157,159,161,-1,-1,-1,-1,-1,-1,-1,-1,-1,-1,-1,-1,-1,-1,-1,-1,-1,-1,-1,-1,-1,-1,-1,-1,-1,-1,-1,-1,-1,-1,-1,-1,-1,-1,-1,-1,-1,-1,-1,-1,-1,-1,-1,-1,-1,-1,-1,-1],"loss_changes":[3.650895E6,3.4330418E6,1.7555369E6,2.4567125E6,8.490935E5,7.6549225E5,6.237941E5,5.02928E5,0E0,2.998215E5,8.661005E5,6.019574E5,5.4860475E5,7.220502E5,7.950364E5,3.9328994E5,6.1333575E5,4.733915E5,2.6189508E4,2.8694594E5,6.25023E5,7.441003E5,2.5838594E5,0E0,2.4757075E5,4.5914875E4,1.6168297E5,6.267005E5,1.7068628E6,0E0,0E0,1.6389775E5,0E0,4.1232412E5,2.238225E4,0E0,2.5899342E4,0E0,6.872783E5,7.197212E5,5.06911E5,0E0,6.2639938E4,0E0,0E0,0E0,4.1028312E5,0E0,5.533716E5,0E0,0E0,7.396086E5,7.5329706E5,0E0,1.3515038E5,5.5243E4,1.33531E5,2.6883984E5,0E0,1.022725E4,0E0,0E0,0E0,9.814492E4,2.6131225E5,6.24397E5,7.688544E5,4.9721088E5,5.0714275E5,0E0,0E0,1.4041673E5,0E0,2.7607008E4,2.9086312E4,7.603815E5,5.1556803E5,3.2253738E5,1.5490452E6,1.2658825E5,1.3346496E4,2.6768125E4,7.17703E4,5.208E4,1.33834E5,5.889394E3,0E0,0E0,0E0,1.1149854E5,3.508115E5,0E0,0E0,6.4215E4,4.362714E5,0E0,2.4898636E5,5.5277016E4,0E0,1.26948E5,7.58665E4,0E0,9.338068E4,0E0,0E0,0E0,0E0,3.0371388E5,1.127885E5,2.4217294E5,9.71158E4,5.3084E4,2.807376E5,3.4359525E5,1.3313661E6,0E0,0E0,0E0,0E0,0E0,0E0,0E0,0E0,0E0,0E0,0E0,0E0,0E0,0E0,0E0,0E0,0E0,0E0,0E0,0E0,0E0,0E0,0E0,0E0,0E0,0E0,0E0,0E0,0E0,0E0,0E0,0E0,0E0,0E0,0E0,0E0,0E0,0E0,0E0,0E0,0E0,0E0,0E0,0E0,0E0,0E0,0E0,0E0],"parents":[2147483647,0,0,1,1,2,2,3,3,4,4,5,5,6,6,7,7,9,9,10,10,11,11,12,12,13,13,14,14,15,15,16,16,17,17,18,18,19,19,20,20,21,21,22,22,24,24,25,25,26,26,27,27,28,28,31,31,33,33,34,34,36,36,38,38,39,39,40,40,42,42,46,46,48,48,51,51,52,52,54,54,55,55,56,56,57,57,59,59,63,63,64,64,65,65,66,66,67,67,68,68,71,71,73,73,74,74,75,75,76,76,77,77,78,78,79,79,80,80,81,81,82,82,83,83,84,84,85,85,89,89,90,90,93,93,94,94,96,96,97,97,99,99,100,100,102,102,107,107,108,108,109,109,110,110,111,111,112,112,113,113,114,114],"right_children":[2,4,6,8,10,12,14,16,-1,18,20,22,24,26,28,30,32,34,36,38,40,42,44,-1,46,48,50,52,54,-1,-1,56,-1,58,60,-1,62,-1,64,66,68,-1,70,-1,-1,-1,72,-1,74,-1,-1,76,78,-1,80,82,84,86,-1,88,-1,-1,-1,90,92,94,96,98,100,-1,-1,102,-1,104,106,108,110,112,114,116,118,120,122,124,126,128,-1,-1,-1,130,132,-1,-1,134,136,-1,138,140,-1,142,144,-1,146,-1,-1,-1,-1,148,150,152,154,156,158,160,162,-1,-1,-1,-1,-1,-1,-1,-1,-1,-1,-1,-1,-1,-1,-1,-1,-1,-1,-1,-1,-1,-1,-1,-1,-1,-1,-1,-1,-1,-1,-1,-1,-1,-1,-1,-1,-1,-1,-1,-1,-1,-1,-1,-1,-1,-1,-1,-1],"split_conditions":[2.4208E4,NaN,2.4113475E-1,2.4206E4,NaN,-6.378825E-1,NaN,-5.1012015E-1,-3.3462444E1,8.194667E-1,-7.1453995E-1,-7.6564485E-1,NaN,1.5085254E0,7.1639866E-1,1.8437442E-1,1.0741333E0,1.3693827E-1,-6.8898743E-1,NaN,NaN,NaN,2.0637703E-1,2.8229599E1,2.0637703E-1,-6.378825E-1,1.8407075E0,-5.356726E-1,2.4213E4,-1.9970766E1,8.787486E0,8.660254E-1,-6.320868E0,7.111691E-2,1E0,-1.0200375E1,1E0,1.9930674E1,5.473056E-1,9.463709E-1,8.9241095E-2,-1.7505365E1,2.797688E-1,-2.7493696E1,1.9042358E0,2.7777365E1,3.0755907E-1,3.0867971E1,4.608739E-1,-1.6730383E1,4.565912E0,2.1536453E-1,-3.0570033E-1,2.3496954E1,1.7640501E0,7.5177306E-1,9.2936633E-4,-7.9119736E-1,1.2942413E1,5.488719E-1,-7.877298E0,-4.970079E0,2.6345246E0,-1.2255894E0,2.4205E4,-5E-1,2.4188E4,2.648184E-2,1.6002238E-1,2.5094967E1,7.348942E0,2.5250793E-1,1.9763601E1,1.7333582E-1,1.7333582E-1,-1.1744845E0,3.1205675E-1,NaN,-1.26833E-1,NaN,1.9056498E-1,5.33582E-1,5E-1,2.5247063E-2,2.5247063E-2,3.580086E-2,-2.4066755E1,-3.2449936E1,-1.2893996E1,1.3488719E-1,8.1560284E-1,-2.182599E1,3.6661134E0,2.3371248E-1,-2.0349044E-1,-3.6249897E1,NaN,2.8230468E-2,-1.4449962E1,2.648184E-2,2.4207E4,-1.1927009E1,-3.0570033E-1,1.0451874E0,-8.2442045E0,3.2898296E1,7.8658786E0,1.8362856E-1,8.660254E-1,NaN,5.163155E-1,1.6487041E-1,2.3475666E-1,NaN,2.4225E4,-2.7182987E1,-7.287988E0,-2.2207336E-1,-7.5291533E0,1.9906063E1,6.8786964E0,-2.4595764E0,1.0240983E1,4.6563675E1,1.8406607E1,-1.8363708E0,1.7660473E1,-2.1214173E0,1.7226044E0,5.9738803E0,-1.0969073E1,2.1750875E0,2.2218958E1,3.7115693E0,2.3259338E1,-1.5114588E1,2.318207E0,1.500591E0,-1.6459164E1,4.0697713E0,1.8873255E1,-3.1878057E1,-9.624337E0,-1.3192977E1,-4.3369713E0,-4.38854E0,6.968517E0,-1.6362585E0,2.1870646E1,-1.7429213E1,2.4246216E-2,9.3572634E-1,1.6605925E1,1.7208985E0,-1.4768547E1,6.6752534E0,3.0002378E1,1.7358456E1,4.9971008E-1,-4.6565795E0,-2.8967102E1,9.708018E0,-1.4151972E1],"split_indices":[6,12,4,6,15,16,13,16,0,2,16,16,14,16,16,2,16,2,16,11,11,11,2,0,2,16,16,16,6,0,0,8,0,2,8,0,2,0,2,16,2,0,2,0,0,0,16,0,16,0,0,2,16,0,16,4,16,16,0,2,0,0,0,16,6,8,6,16,2,0,0,2,0,2,2,16,4,12,16,11,2,2,8,2,2,2,0,0,0,2,4,0,0,2,16,0,13,2,0,16,6,0,16,0,0,0,0,2,8,15,2,2,2,14,6,0,0,0,0,0,0,0,0,0,0,0,0,0,0,0,0,0,0,0,0,0,0,0,0,0,0,0,0,0,0,0,0,0,0,0,0,0,0,0,0,0,0,0,0,0,0,0,0],"split_type":[0,1,0,0,1,0,1,0,0,0,0,0,1,0,0,0,0,0,0,1,1,1,0,0,0,0,0,0,0,0,0,0,0,0,0,0,0,0,0,0,0,0,0,0,0,0,0,0,0,0,0,0,0,0,0,0,0,0,0,0,0,0,0,0,0,0,0,0,0,0,0,0,0,0,0,0,0,1,0,1,0,0,0,0,0,0,0,0,0,0,0,0,0,0,0,0,1,0,0,0,0,0,0,0,0,0,0,0,0,1,0,0,0,1,0,0,0,0,0,0,0,0,0,0,0,0,0,0,0,0,0,0,0,0,0,0,0,0,0,0,0,0,0,0,0,0,0,0,0,0,0,0,0,0,0,0,0,0,0,0,0,0,0],"sum_hessian":[2.77E2,1.37E2,1.4E2,2.6E1,1.11E2,2.9E1,1.11E2,2.4E1,2E0,2E1,9.1E1,7E0,2.2E1,8E0,1.03E2,3E0,2.1E1,1.5E1,5E0,1.8E1,7.3E1,5E0,2E0,1.1E1,1.1E1,6E0,2E0,9.2E1,1.1E1,1E0,2E0,1.9E1,2E0,5E0,1E1,2E0,3E0,1E0,1.7E1,2.8E1,4.5E1,1E0,4E0,1E0,1E0,1E0,1E1,2E0,4E0,1E0,1E0,3E1,6.2E1,2E0,9E0,1.2E1,7E0,4E0,1E0,9E0,1E0,2E0,1E0,1.3E1,4E0,1.9E1,9E0,5E0,4E1,2E0,2E0,7E0,3E0,2E0,2E0,1.7E1,1.3E1,1.3E1,4.9E1,7E0,2E0,7E0,5E0,4E0,3E0,2E0,2E0,7E0,2E0,2E0,1.1E1,3E0,1E0,3E0,1.6E1,2E0,7E0,3E0,2E0,7E0,3.3E1,1E0,6E0,1E0,1E0,1E0,1E0,5E0,1.2E1,1E1,3E0,4E0,9E0,6E0,4.3E1,5E0,2E0,1E0,1E0,5E0,2E0,1E0,4E0,1E0,3E0,1E0,2E0,1E0,1E0,1E0,1E0,9E0,2E0,1E0,2E0,4E0,1.2E1,5E0,2E0,2E0,1E0,5E0,2E0,2.9E1,4E0,2E0,4E0,4E0,1E0,1.1E1,1E0,4E0,6E0,1E0,2E0,1E0,3E0,4E0,5E0,3E0,3E0,3.7E1,6E0],"tree_param":{"num_deleted":"0","num_feature":"17","num_nodes":"163","size_leaf_vector":"1"}},{"base_weights":[5.379051E0,6.2459155E2,-6.735955E0,5.941034E0,3.6066456E1,-8.938975E1,7.0375374E1,-3.50644E2,-5.295153E1,-1.0502876E2,1.3655658E2,-4.117439E2,1.2618854E1,-1.6244484E2,1.5054768E2,2.1833746E1,-1.4845969E2,4.1651947E2,8.026435E1,-1.3873756E2,-5.479988E2,1.04350815E2,-1.9278207E2,3.2123822E2,-3.765787E2,2.1380797E2,-2.1596455E2,-3.7425274E1,6.262603E2,-1.4466809E2,1.20890884E2,-1.5310088E1,-4.400437E1,-5.997598E0,-2.9325531E1,1.5196623E2,-5.723929E0,-2.0604443E2,1.6400242E1,9.296835E2,2.4457486E2,-4.687621E2,1.1326795E1,-2.5312883E2,2.552793E1,-1.4357971E1,-3.0168365E2,3.5528223E2,-2.7428009E1,6.7804877E2,2.709381E0,-2.5064597E2,2.0747091E1,1.9308536E2,6.816397E1,-6.499164E0,2.832133E0,2.104331E1,1.5975786E1,-1.419228E2,-3.749735E2,3.7329438E0,6.599332E1,3.306604E2,-6.0918926E1,-1.3303705E2,-4.2757957E1,-1.2002167E0,-1.7784445E1,1.2931645E2,-1.8389568E2,2.9309938E0,-3.2262982E2,-1.6670456E1,3.4799118E1,1.6695084E1,7.7784015E2,-3.7297607E1,-3.155458E2,1.1201571E1,-1.3690292E2,1.0231595E2,2.3187202E1,-2.02974E2,1.4826141E2,-4.9854217E0,1.2601257E1,-2.408278E1,-5.4285245E0,-1.9539633E1,-3.0466828E0,2.3139797E1,2.0786839E0,-1.1912341E0,-5.121818E0,-2.3884333E1,7.9354706E0,-5.9571366E0,2.0874495E1,-1.3981471E1,4.9759827E0,-7.069822E0,-1.7955046E1,4.1623177E1,1.1252502E1,1.1837677E0,-3.9810884E0,-2.2278275E1,-6.9572296E0,-1.7067732E1,2.2516258E0,2.4037368E0,3.2390568E1,-1.3348304E1,9.323865E0,1.4020874E1,3.9305103E0],"categories":[0,0,0,0,0,0],"categories_nodes":[1,5,8,18,25,72],"categories_segments":[0,1,2,3,4,5],"categories_sizes":[1,1,1,1,1,1],"default_left":[0,1,0,0,0,1,0,0,1,0,0,0,0,0,0,0,0,0,1,0,0,0,0,0,0,1,0,0,0,0,0,0,0,0,0,0,0,0,0,0,0,0,0,0,0,0,0,0,0,0,0,0,0,0,0,0,0,0,0,0,0,0,0,0,0,0,0,0,0,0,0,0,1,0,0,0,0,0,0,0,0,0,0,0,0,0,0,0,0,0,0,0,0,0,0,0,0,0,0,0,0,0,0,0,0,0,0,0,0,0,0,0,0,0,0,0,0],"id":6,"left_children":[1,3,5,-1,-1,7,9,11,13,15,17,19,-1,21,23,-1,25,27,29,31,33,35,37,39,41,43,45,47,49,51,53,-1,55,-1,-1,57,-1,59,-1,61,63,65,-1,67,-1,69,71,73,-1,75,-1,77,79,81,83,-1,-1,85,-1,87,89,-1,-1,91,93,95,-1,-1,-1,97,99,-1,101,-1,-1,-1,103,105,107,-1,109,111,-1,113,115,-1,-1,-1,-1,-1,-1,-1,-1,-1,-1,-1,-1,-1,-1,-1,-1,-1,-1,-1,-1,-1,-1,-1,-1,-1,-1,-1,-1,-1,-1,-1,-1],"loss_changes":[1.9546659E6,1.5892625E5,1.637918E6,0E0,0E0,1.1618681E6,1.5582674E6,6.565826E5,2.475454E6,9.35316E5,1.4952626E6,4.4475025E5,0E0,6.028734E5,3.6300155E6,0E0,9.0209406E5,1.54681E6,7.6682344E5,8.171229E4,7.801075E4,1.007541E5,5.1653025E5,1.1719862E6,6.6216275E5,9.606197E5,5.1411462E5,1.3992528E6,2.891525E5,2.3309469E5,2.533E5,0E0,5.0630207E4,0E0,0E0,1.4682878E5,0E0,6.4003125E5,0E0,9.0230825E5,7.565039E5,1.0537406E6,0E0,6.1959E4,0E0,2.6736306E5,1.7739912E5,1.1705959E6,0E0,8.37075E4,0E0,9.900109E4,2.229572E5,6.6501E5,9.422265E5,0E0,0E0,1.6458633E5,0E0,4.915883E5,6.064075E4,0E0,0E0,8.2113E5,8.339893E3,6.791151E5,0E0,0E0,0E0,4.7933684E5,1.6349069E5,0E0,8.142E4,0E0,0E0,0E0,2.40205E4,9.626961E3,7.561575E4,0E0,1.641601E5,6.4938825E5,0E0,2.99001E5,2.817157E5,0E0,0E0,0E0,0E0,0E0,0E0,0E0,0E0,0E0,0E0,0E0,0E0,0E0,0E0,0E0,0E0,0E0,0E0,0E0,0E0,0E0,0E0,0E0,0E0,0E0,0E0,0E0,0E0,0E0,0E0,0E0,0E0],"parents":[2147483647,0,0,1,1,2,2,5,5,6,6,7,7,8,8,9,9,10,10,11,11,13,13,14,14,16,16,17,17,18,18,19,19,20,20,21,21,22,22,23,23,24,24,25,25,26,26,27,27,28,28,29,29,30,30,32,32,35,35,37,37,39,39,40,40,41,41,43,43,45,45,46,46,47,47,49,49,51,51,52,52,53,53,54,54,57,57,59,59,60,60,63,63,64,64,65,65,69,69,70,70,72,72,76,76,77,77,78,78,80,80,81,81,83,83,84,84],"right_children":[2,4,6,-1,-1,8,10,12,14,16,18,20,-1,22,24,-1,26,28,30,32,34,36,38,40,42,44,46,48,50,52,54,-1,56,-1,-1,58,-1,60,-1,62,64,66,-1,68,-1,70,72,74,-1,76,-1,78,80,82,84,-1,-1,86,-1,88,90,-1,-1,92,94,96,-1,-1,-1,98,100,-1,102,-1,-1,-1,104,106,108,-1,110,112,-1,114,116,-1,-1,-1,-1,-1,-1,-1,-1,-1,-1,-1,-1,-1,-1,-1,-1,-1,-1,-1,-1,-1,-1,-1,-1,-1,-1,-1,-1,-1,-1,-1,-1],"split_conditions":[2.5247063E-2,NaN,3.5894173E-1,5.941034E0,3.6066456E1,NaN,1.8370315E-1,1E0,NaN,-1.3022468E0,2.0637703E-1,-6.378825E-1,1.2618854E1,4.5408294E-2,8.660254E-1,2.1833746E1,-1.8369701E-16,-7.1453995E-1,NaN,-5E-1,4.761905E-2,1.797967E-1,1.9940224E0,-7.1453995E-1,2.3809524E-1,NaN,4.933859E-1,-8.423023E-1,4.608739E-1,1.2246469E-16,-1.0128053E-1,-1.5310088E1,-1.0722746E0,-5.997598E0,-2.9325531E1,1.904762E-1,-5.723929E0,1.904762E-1,1.6400242E1,5.33582E-1,8.186086E-1,1.904762E-1,1.1326795E1,-3.8235775E-1,2.552793E1,2.0534916E-1,-1.2766944E0,4.761905E-2,-2.7428009E1,1.9037852E-1,2.709381E0,-4.334627E-1,8.660254E-1,5E-1,5.2034315E-2,-6.499164E0,2.832133E0,1E0,1.5975786E1,4.761905E-2,3.2052913E-1,3.7329438E0,6.599332E1,7.5177306E-1,5.488719E-1,-2.0349044E-1,-4.2757957E1,-1.2002167E0,-1.7784445E1,2.648184E-2,2.3809524E-1,2.9309938E0,NaN,-1.6670456E1,3.4799118E1,1.6695084E1,1.904762E-1,9.52381E-2,1.4285715E-1,1.1201571E1,-8.167498E-1,-1.26833E-1,2.3187202E1,3.532724E-1,2.3090164E-1,-4.9854217E0,1.2601257E1,-2.408278E1,-5.4285245E0,-1.9539633E1,-3.0466828E0,2.3139797E1,2.0786839E0,-1.1912341E0,-5.121818E0,-2.3884333E1,7.9354706E0,-5.9571366E0,2.0874495E1,-1.3981471E1,4.9759827E0,-7.069822E0,-1.7955046E1,4.1623177E1,1.1252502E1,1.1837677E0,-3.9810884E0,-2.2278275E1,-6.9572296E0,-1.7067732E1,2.2516258E0,2.4037368E0,3.2390568E1,-1.3348304E1,9.323865E0,1.4020874E1,3.9305103E0],"split_indices":[2,15,3,0,0,15,2,7,14,16,2,16,0,3,7,0,8,16,15,7,5,16,16,16,5,14,3,16,16,7,16,0,16,0,0,5,0,5,0,2,16,5,0,16,0,16,16,5,0,2,0,16,7,8,16,0,0,7,0,5,3,0,0,4,2,16,0,0,0,16,5,0,15,0,0,0,5,5,5,0,16,16,0,2,16,0,0,0,0,0,0,0,0,0,0,0,0,0,0,0,0,0,0,0,0,0,0,0,0,0,0,0,0,0,0,0,0],"split_type":[0,1,0,0,0,1,0,0,1,0,0,0,0,0,0,0,0,0,1,0,0,0,0,0,0,1,0,0,0,0,0,0,0,0,0,0,0,0,0,0,0,0,0,0,0,0,0,0,0,0,0,0,0,0,0,0,0,0,0,0,0,0,0,0,0,0,0,0,0,0,0,0,1,0,0,0,0,0,0,0,0,0,0,0,0,0,0,0,0,0,0,0,0,0,0,0,0,0,0,0,0,0,0,0,0,0,0,0,0,0,0,0,0,0,0,0,0],"sum_hessian":[2.59E2,4E0,2.55E2,1E0,3E0,1.23E2,1.32E2,1.4E1,1.09E2,3.6E1,9.6E1,1.3E1,1E0,7.1E1,3.8E1,2E0,3.4E1,1.5E1,8.1E1,5E0,8E0,7E0,6.4E1,2.9E1,9E0,5E0,2.9E1,5E0,1E1,1.2E1,6.9E1,1E0,4E0,1E0,7E0,6E0,1E0,6.3E1,1E0,2E0,2.7E1,8E0,1E0,2E0,3E0,9E0,2E1,3E0,2E0,9E0,1E0,7E0,5E0,2.8E1,4.1E1,2E0,2E0,4E0,2E0,4.7E1,1.6E1,1E0,1E0,2.1E1,6E0,5E0,3E0,1E0,1E0,5E0,4E0,1E0,1.9E1,1E0,2E0,3E0,6E0,2E0,5E0,2E0,3E0,2.2E1,6E0,9E0,3.2E1,3E0,1E0,3E0,4.4E1,1.5E1,1E0,1.4E1,7E0,4E0,2E0,2E0,3E0,3E0,2E0,3E0,1E0,4E0,1.5E1,5E0,1E0,1E0,1E0,2E0,3E0,1E0,2E0,2.1E1,1E0,8E0,1E0,1E1,2.2E1],"tree_param":{"num_deleted":"0","num_feature":"17","num_nodes":"117","size_leaf_vector":"1"}},{"base_weights":[6.6295505E0,1.7823302E2,-4.8678436E1,4.1792264E2,5.972421E1,-1.7369904E2,4.814828E1,-2.2199053E1,5.263121E2,-1.2825484E2,2.70622E2,-1.3895285E2,-4.4124786E2,-2.1645584E2,8.878437E1,5.822296E2,1.5369507E1,-5.0986557E1,-5.211667E2,-2.737349E1,3.798047E2,2.1952486E2,-1.701422E2,-1.730069E2,-2.9562033E1,-6.115141E1,-1.8205816E1,2.7273227E2,5.1820023E1,4.6508197E2,6.434348E1,8.460294E0,-7.3075805E0,-2.844216E2,5.4327934E1,-3.0921766E1,-5.734021E0,4.0526065E2,-2.5964723E0,2.183592E1,-2.156393E2,1.4519843E1,-1.9304651E2,-1.5078493E1,-3.2736847E0,-1.6982964E1,6.6945015E1,5.3283636E2,8.241763E1,-1.2157734E2,1.3617093E2,7.332467E0,4.9776303E2,-1.534962E1,-3.7249207E0,-6.0313953E1,2.1034093E2,-1.099234E0,4.302179E2,-1.7648226E1,1.4752778E0,-3.4181778E2,-1.5195132E2,-6.0933228E1,1.28880205E1,1.1812366E2,3.3754833E1,-5.684659E0,1.1339803E2,-3.922735E0,-4.2993033E2,2.2747182E2,2.6963804E1,5.4400476E2,1.1729856E1,-2.6283585E2,1.9477512E2,2.6535806E2,-2.994046E0,2.7414017E1,3.254966E2,-4.0138586E2,1.2303382E1,1.021324E2,-1.9972905E2,9.959617E0,-8.788135E0,2.1699314E1,-1.2840039E1,9.955817E0,4.821643E1,2.8155313E2,-1.0444818E2,-4.7755197E2,-2.4144745E0,1.4782661E2,6.2799066E2,3.1437637E1,-1.8611814E1,6.957248E0,2.8408033E1,-1.6599821E1,2.074173E0,-2.5410745E0,1.8772335E1,1.566661E1,6.371857E-1,1.9221302E1,1.0283223E0,-2.6235977E1,-7.4743814E0,1.638274E1,2.39748E-1,-5.329195E0,-1.5221964E1,-2.7886384E0,3.742171E0,-8.472226E0,2.028208E1,-7.2767687E0,1.3823669E1,-2.616609E1,-5.073322E0,-1.2340031E1,9.383744E0,4.3907894E1,-9.316953E0,9.788592E0,-7.811792E0],"categories":[0,0,0,0,0],"categories_nodes":[0,11,25,42,62],"categories_segments":[0,1,2,3,4],"categories_sizes":[1,1,1,1,1],"default_left":[1,0,0,0,0,0,0,0,0,0,0,1,0,0,0,0,0,0,0,0,0,0,0,0,0,1,0,0,0,0,0,0,0,0,0,0,0,0,0,0,0,0,1,0,0,0,0,0,0,0,0,0,0,0,0,0,0,0,0,0,0,0,1,0,0,0,0,0,0,0,0,0,0,0,0,0,0,0,0,0,0,0,0,0,0,0,0,0,0,0,0,0,0,0,0,0,0,0,0,0,0,0,0,0,0,0,0,0,0,0,0,0,0,0,0,0,0,0,0,0,0,0,0,0,0,0,0,0,0],"id":7,"left_children":[1,3,5,7,9,11,13,-1,15,17,19,21,23,25,27,29,31,33,35,-1,37,39,41,43,-1,45,-1,47,49,51,-1,-1,-1,53,55,-1,-1,57,-1,-1,59,-1,61,-1,-1,-1,63,65,67,69,71,-1,73,-1,-1,75,77,-1,79,-1,-1,81,83,85,-1,87,-1,-1,89,91,93,95,97,99,-1,101,103,105,-1,-1,107,109,-1,111,113,-1,-1,-1,-1,-1,115,117,119,121,-1,123,125,-1,127,-1,-1,-1,-1,-1,-1,-1,-1,-1,-1,-1,-1,-1,-1,-1,-1,-1,-1,-1,-1,-1,-1,-1,-1,-1,-1,-1,-1,-1,-1],"loss_changes":[2.6092218E6,1.878197E6,2.5262728E6,2.28894E6,1.8583496E6,7.8465075E5,1.2880102E6,0E0,5.62464E5,7.3241806E5,2.1730035E6,9.54167E5,3.0005362E5,3.4465106E5,6.862169E5,8.873445E5,9.927318E4,5.5630206E5,8.7231125E4,0E0,2.4084925E5,7.557775E5,8.5773275E5,4.937903E4,0E0,3.4382125E5,0E0,7.976125E5,1.2890369E6,1.0391725E5,0E0,0E0,0E0,1.02964375E4,2.988565E5,0E0,0E0,2.120525E5,0E0,0E0,1.11408125E5,0E0,3.943665E5,0E0,0E0,0E0,1.8651414E5,3.3323512E5,7.9724086E4,1.0504088E6,5.821381E5,0E0,5.491675E4,0E0,0E0,5.678051E5,1.1995766E5,0E0,4.408225E4,0E0,0E0,6.240561E5,7.3663175E5,1.8436097E5,0E0,4.6672184E5,0E0,0E0,4.6271875E4,6.607546E5,1.22334125E5,9.2794725E5,7.7965556E5,3.830075E4,0E0,1.4005375E5,2.4094239E5,6.872069E4,0E0,0E0,2.0772588E5,3.5650625E5,0E0,2.1794662E5,4.55214E5,0E0,0E0,0E0,0E0,0E0,2.3556664E4,4.0451528E5,3.0630356E5,6.7394125E4,0E0,4.866242E5,1.182228E6,0E0,8.272038E5,0E0,0E0,0E0,0E0,0E0,0E0,0E0,0E0,0E0,0E0,0E0,0E0,0E0,0E0,0E0,0E0,0E0,0E0,0E0,0E0,0E0,0E0,0E0,0E0,0E0,0E0,0E0,0E0,0E0,0E0],"parents":[2147483647,0,0,1,1,2,2,3,3,4,4,5,5,6,6,8,8,9,9,10,10,11,11,12,12,13,13,14,14,15,15,16,16,17,17,18,18,20,20,21,21,22,22,23,23,25,25,27,27,28,28,29,29,33,33,34,34,37,37,40,40,42,42,46,46,47,47,48,48,49,49,50,50,52,52,55,55,56,56,58,58,61,61,62,62,63,63,65,65,68,68,69,69,70,70,71,71,72,72,73,73,75,75,76,76,77,77,80,80,81,81,83,83,84,84,90,90,91,91,92,92,93,93,95,95,96,96,98,98],"right_children":[2,4,6,8,10,12,14,-1,16,18,20,22,24,26,28,30,32,34,36,-1,38,40,42,44,-1,46,-1,48,50,52,-1,-1,-1,54,56,-1,-1,58,-1,-1,60,-1,62,-1,-1,-1,64,66,68,70,72,-1,74,-1,-1,76,78,-1,80,-1,-1,82,84,86,-1,88,-1,-1,90,92,94,96,98,100,-1,102,104,106,-1,-1,108,110,-1,112,114,-1,-1,-1,-1,-1,116,118,120,122,-1,124,126,-1,128,-1,-1,-1,-1,-1,-1,-1,-1,-1,-1,-1,-1,-1,-1,-1,-1,-1,-1,-1,-1,-1,-1,-1,-1,-1,-1,-1,-1,-1,-1],"split_conditions":[NaN,-3.0570033E-1,3.3973545E-1,-9.9561715E-1,2.9787233E-1,9.9747586E-1,1.6744359E-1,-2.2199053E1,7.1648437E-1,5.8269626E-1,-1.26833E-1,NaN,6.123234E-17,4.933859E-1,-8.423023E-1,1E0,2.3501772E-1,2.5250793E-1,9.713593E-1,-2.737349E1,1E0,7.7304965E-1,2.8230468E-2,7.154668E-2,-2.9562033E1,NaN,-1.8205816E1,2.797688E-1,1.4285715E-1,-7.1453995E-1,6.434348E1,8.460294E0,-7.3075805E0,8.660254E-1,1.797967E-1,-3.0921766E1,-5.734021E0,-1.0128053E-1,-2.5964723E0,2.183592E1,1.3693827E-1,1.4519843E1,NaN,-1.5078493E1,-3.2736847E0,-1.6982964E1,1.1202685E-1,1.8370315E-1,2.8644416E-1,-3.8235775E-1,1.904762E-1,7.332467E0,7.3758864E-1,-1.534962E1,-3.7249207E0,-2.4492937E-16,3.7807196E-1,-1.099234E0,2.0534916E-1,-1.7648226E1,1.4752778E0,1E0,NaN,-1.3022468E0,1.28880205E1,9.52381E-2,3.3754833E1,-5.684659E0,-1.2511419E0,9.52381E-2,1.2869173E-1,3.1205675E-1,1.7333582E-1,1.6487041E-1,1.1729856E1,2.3809524E-1,3.083349E-1,2.3809524E-1,-2.994046E0,2.7414017E1,4.5497328E-1,5.488719E-1,1.2303382E1,-6.1233E-1,1.4614601E-1,9.959617E0,-8.788135E0,2.1699314E1,-1.2840039E1,9.955817E0,-1.0978271E0,1.8370315E-1,5.6718254E-1,6.9969475E-1,-2.4144745E0,1.7333582E-1,2.1536453E-1,3.1437637E1,2.4822696E-1,6.957248E0,2.8408033E1,-1.6599821E1,2.074173E0,-2.5410745E0,1.8772335E1,1.566661E1,6.371857E-1,1.9221302E1,1.0283223E0,-2.6235977E1,-7.4743814E0,1.638274E1,2.39748E-1,-5.329195E0,-1.5221964E1,-2.7886384E0,3.742171E0,-8.472226E0,2.028208E1,-7.2767687E0,1.3823669E1,-2.616609E1,-5.073322E0,-1.2340031E1,9.383744E0,4.3907894E1,-9.316953E0,9.788592E0,-7.811792E0],"split_indices":[12,16,3,16,4,16,2,0,3,2,16,13,8,3,16,8,2,2,2,0,7,4,2,3,0,11,0,2,5,16,0,0,0,8,16,0,0,16,0,0,2,0,15,0,0,0,2,2,2,16,5,0,4,0,0,7,2,0,16,0,0,7,11,16,0,5,0,0,16,5,16,4,2,2,0,5,2,5,0,0,3,2,0,16,3,0,0,0,0,0,16,2,2,3,0,2,2,0,4,0,0,0,0,0,0,0,0,0,0,0,0,0,0,0,0,0,0,0,0,0,0,0,0,0,0,0,0,0,0],"split_type":[1,0,0,0,0,0,0,0,0,0,0,1,0,0,0,0,0,0,0,0,0,0,0,0,0,1,0,0,0,0,0,0,0,0,0,0,0,0,0,0,0,0,1,0,0,0,0,0,0,0,0,0,0,0,0,0,0,0,0,0,0,0,1,0,0,0,0,0,0,0,0,0,0,0,0,0,0,0,0,0,0,0,0,0,0,0,0,0,0,0,0,0,0,0,0,0,0,0,0,0,0,0,0,0,0,0,0,0,0,0,0,0,0,0,0,0,0,0,0,0,0,0,0,0,0,0,0,0,0],"sum_hessian":[2.73E2,6.6E1,2.07E2,2.1E1,4.5E1,9E1,1.17E2,2E0,1.9E1,2.4E1,2.1E1,8.1E1,9E0,1.5E1,1.02E2,1.7E1,2E0,2.1E1,3E0,2E0,1.9E1,6E0,7.5E1,4E0,5E0,8E0,7E0,1.6E1,8.6E1,1.6E1,1E0,1E0,1E0,6E0,1.5E1,2E0,1E0,1.8E1,1E0,4E0,2E0,3E0,7.2E1,1E0,3E0,2E0,6E0,6E0,1E1,2.8E1,5.8E1,2E0,1.4E1,5E0,1E0,9E0,6E0,1E0,1.7E1,1E0,1E0,1.4E1,5.8E1,4E0,2E0,2E0,4E0,1E0,9E0,2.1E1,7E0,3.1E1,2.7E1,1.1E1,3E0,5E0,4E0,5E0,1E0,6E0,1.1E1,1.3E1,1E0,9E0,4.9E1,1E0,3E0,1E0,1E0,3E0,6E0,5E0,1.6E1,6E0,1E0,2.7E1,4E0,1E0,2.6E1,1E0,1E1,4E0,1E0,2E0,2E0,4E0,1E0,9E0,2E0,8E0,5E0,2E0,7E0,2.7E1,2.2E1,1E0,5E0,1E0,4E0,1.5E1,1E0,5E0,1E0,2E0,2.5E1,3E0,1E0,1E1,1.6E1],"tree_param":{"num_deleted":"0","num_feature":"17","num_nodes":"129","size_leaf_vector":"1"}},{"base_weights":[-1.2599606E1,1.9928761E2,-7.4382E1,4.5668362E2,1.12899796E2,-1.9437907E2,4.1824356E1,5.4592303E2,-1.981671E1,-7.2357635E1,2.9345306E2,-4.1399384E2,-1.492316E2,-6.1086277E1,1.23455795E2,-1.577102E2,6.7633777E2,4.8246647E1,-2.4602829E2,-1.8310335E2,3.4509924E2,-1.2662439E2,-4.9267487E2,-1.9511505E1,-2.0728046E2,8.760959E1,-2.2652133E2,2.8364316E2,-2.5572002E1,3.4563081E0,-1.5284574E1,8.1562714E2,1.9385233E2,-1.21884766E2,2.6009467E2,-4.3092407E1,-3.741368E2,-1.0717529E0,-1.2660998E1,3.6868292E2,-3.7539399E0,-9.550101E0,-2.0038614E1,-2.7868818E1,-2.0775243E2,1.4853108E2,-1.5482663E2,-2.819422E2,-1.17747475E2,-9.9813774E1,2.1098755E2,-3.9344083E2,7.684687E1,1.5387498E2,4.5465848E2,1.5757527E2,-2.1856773E2,5.5410046E1,2.4232002E1,1.49852705E1,1.8261337E1,8.958549E0,-1.819131E2,4.1894446E2,-9.135323E1,-1.3478846E1,8.092294E1,-5.590671E0,-2.021194E1,6.864758E1,4.1487506E2,-4.187613E0,2.684717E0,-6.1298054E1,-1.6177889E1,2.1597235E2,-1.6519102E1,-1.7572844E1,3.715876E1,-4.594388E2,-1.9251141E2,-1.261731E1,-1.8129272E2,8.888296E0,-1.8124992E2,-1.1153313E2,3.2778888E2,1.826226E2,-4.9611386E2,1.9866581E1,-1.2880173E1,7.369631E1,2.6510147E1,6.493331E2,-9.702405E1,2.2330765E2,-1.11881836E2,7.369159E0,-2.813738E2,-7.1248903E0,8.248786E0,-1.023637E2,-1.8468973E1,2.3403067E1,5.5619264E0,-7.472748E0,6.212555E-1,1.1247629E1,-4.2071125E1,1.2568973E1,-3.8028095E0,2.5996021E1,3.0076248E2,2.2646332E0,-6.8619876E0,-4.5459323E0,2.5213686E2,1.339785E2,-2.0114021E2,-2.5276552E2,-3.0777952E1,1.26414955E2,-2.2890512E2,-1.0458217E1,1.5765404E2,6.533883E1,-2.1620535E2,-2.516475E2,-3.0341064E1,5.373346E0,-1.4667773E1,1.3642279E2,3.3820766E1,1.3478076E1,2.1861878E-1,-2.604842E1,-4.9464874E0,-1.3173416E2,1.3890735E2,1.5883968E2,-1.7410242E1,8.6431946E2,-6.8746056E1,-1.378183E0,-5.5494814E0,4.5569177E2,4.357293E1,3.037665E0,-9.483899E0,-3.735277E2,4.2392914E1,-8.99615E0,3.0511515E0,-3.6317964E0,4.764618E-1,1.8048582E1,9.9404496E-1,1.8971472E1,4.141073E0,1.0453471E1,-1.791626E0,-2.9820802E0,-1.2103436E1,-1.5383072E1,-4.765788E0,9.018378E0,4.6274415E-1,-1.3880577E1,-8.761145E-1,-4.386432E0,2.570369E1,-5.7996826E0,1.0700095E1,-5.1053243E0,-1.5877045E1,-2.718921E0,-1.4011283E1,4.4369102E-1,-3.699643E0,2.5038599E1,-1.2760547E1,-7.7982545E0,-8.7026066E-1,1.6482706E0,1.1418329E1,-8.125497E-1,1.4609453E1,8.883838E0,4.7457355E1,-1.3084729E1,7.9287753E0,8.847606E0,2.7541182E1,1.4023058E1,-3.2087648E0,-2.0526234E1,-8.8961795E-2,-1.4448337E1,1.2458419E1],"categories":[0,0,0,0,0,0,0],"categories_nodes":[0,5,12,50,142,146,150],"categories_segments":[0,1,2,3,4,5,6],"categories_sizes":[1,1,1,1,1,1,1],"default_left":[1,0,0,0,0,1,0,0,0,0,0,0,1,0,0,0,0,0,0,0,0,0,0,0,0,0,0,0,0,0,0,0,0,0,0,0,0,0,0,0,0,0,0,0,0,0,0,0,0,0,1,0,0,0,0,0,0,0,0,0,0,0,0,0,0,0,0,0,0,0,0,0,0,0,0,0,0,0,0,0,0,0,0,0,0,0,0,0,0,0,0,0,0,0,0,0,0,0,0,0,0,0,0,0,0,0,0,0,0,0,0,0,0,0,0,0,0,0,0,0,0,0,0,0,0,0,0,0,0,0,0,0,0,0,0,0,0,0,0,0,0,0,1,0,0,0,1,0,0,0,1,0,0,0,0,0,0,0,0,0,0,0,0,0,0,0,0,0,0,0,0,0,0,0,0,0,0,0,0,0,0,0,0,0,0,0,0,0,0,0,0,0,0,0,0,0,0,0,0],"id":8,"left_children":[1,3,5,7,9,11,13,15,-1,17,19,21,23,25,27,29,31,33,35,37,39,41,43,45,47,49,51,53,55,-1,-1,57,59,61,63,65,67,-1,-1,69,-1,-1,71,-1,73,75,77,79,81,83,85,87,89,91,93,95,97,-1,-1,99,-1,-1,101,103,105,-1,107,-1,-1,109,111,-1,-1,113,-1,115,-1,-1,117,119,121,123,125,-1,127,129,131,133,135,-1,137,139,-1,141,143,145,147,-1,149,-1,-1,151,-1,-1,-1,-1,-1,-1,153,-1,-1,-1,155,-1,-1,-1,157,159,161,163,-1,165,167,-1,169,171,173,175,177,-1,-1,179,-1,-1,-1,-1,-1,181,183,185,-1,187,189,-1,-1,191,193,-1,-1,195,197,-1,-1,-1,-1,-1,-1,-1,-1,-1,-1,-1,-1,-1,-1,-1,-1,-1,-1,-1,-1,-1,-1,-1,-1,-1,-1,-1,-1,-1,-1,-1,-1,-1,-1,-1,-1,-1,-1,-1,-1,-1,-1,-1,-1,-1,-1,-1,-1],"loss_changes":[3.5362758E6,1.304829E6,2.922514E6,1.3582105E6,1.5933289E6,9.5946925E5,9.064209E5,1.3913632E6,0E0,5.145602E5,6.538846E5,3.2199425E5,6.510745E5,1.2006219E6,1.4395955E6,1.2183388E5,6.4835E5,5.7233156E5,2.4385562E5,2.8579125E4,2.4568575E5,3.0481297E4,1.2385725E5,6.596803E5,3.6788325E5,6.2228125E5,1.1949102E6,5.7361775E5,1.1655335E6,0E0,0E0,3.34465E5,1.1713995E5,1.952404E5,4.2906397E5,1.6225273E5,2.1795E3,0E0,0E0,2.625645E5,0E0,0E0,1.8590406E4,0E0,4.8007344E4,4.9123397E5,6.170619E5,4.1951E5,1.9144772E5,2.8087528E5,6.392929E5,9.7779425E5,2.6392303E5,5.0404856E5,1.3517838E6,3.2608906E5,4.092128E5,0E0,0E0,9.437155E4,0E0,0E0,8.149166E4,2.350125E4,1.9946092E4,0E0,8.0323164E4,0E0,0E0,1.2488693E5,5.939325E4,0E0,0E0,3.0499992E4,0E0,1.5610662E5,0E0,0E0,2.3459689E5,1.670665E5,2.95896E5,4.3457153E5,1.6911662E5,0E0,8.797728E4,2.3062153E5,7.083049E5,4.5312023E4,7.679475E4,0E0,1.6262325E5,6.300621E5,0E0,1.4488138E6,8.209375E2,5.6488894E5,6.524496E4,0E0,4.33544E5,0E0,0E0,9.968457E4,0E0,0E0,0E0,0E0,0E0,0E0,5.4236284E3,0E0,0E0,0E0,1.7885156E5,0E0,0E0,0E0,2.0565369E5,9.675033E4,2.9366172E3,2.2535156E4,0E0,1.7293992E4,2.1134525E5,0E0,6.573137E5,1.0569519E5,1.5257338E5,1.8587281E4,7.5038003E3,0E0,0E0,1.4120252E6,0E0,0E0,0E0,0E0,0E0,1.1136883E4,3.0381734E4,3.3162366E5,0E0,2.390825E5,1.7308242E5,0E0,0E0,6.163275E4,2.4771722E5,0E0,0E0,1.5055862E5,3.4606956E5,0E0,0E0,0E0,0E0,0E0,0E0,0E0,0E0,0E0,0E0,0E0,0E0,0E0,0E0,0E0,0E0,0E0,0E0,0E0,0E0,0E0,0E0,0E0,0E0,0E0,0E0,0E0,0E0,0E0,0E0,0E0,0E0,0E0,0E0,0E0,0E0,0E0,0E0,0E0,0E0,0E0,0E0,0E0,0E0,0E0,0E0,0E0,0E0],"parents":[2147483647,0,0,1,1,2,2,3,3,4,4,5,5,6,6,7,7,9,9,10,10,11,11,12,12,13,13,14,14,15,15,16,16,17,17,18,18,19,19,20,20,21,21,22,22,23,23,24,24,25,25,26,26,27,27,28,28,31,31,32,32,33,33,34,34,35,35,36,36,39,39,42,42,44,44,45,45,46,46,47,47,48,48,49,49,50,50,51,51,52,52,53,53,54,54,55,55,56,56,59,59,62,62,63,63,64,64,66,66,69,69,70,70,73,73,75,75,78,78,79,79,80,80,81,81,82,82,84,84,85,85,86,86,87,87,88,88,90,90,91,91,93,93,94,94,95,95,96,96,98,98,101,101,108,108,112,112,116,116,117,117,118,118,119,119,121,121,122,122,124,124,125,125,126,126,127,127,128,128,131,131,137,137,138,138,139,139,141,141,142,142,145,145,146,146,149,149,150,150],"right_children":[2,4,6,8,10,12,14,16,-1,18,20,22,24,26,28,30,32,34,36,38,40,42,44,46,48,50,52,54,56,-1,-1,58,60,62,64,66,68,-1,-1,70,-1,-1,72,-1,74,76,78,80,82,84,86,88,90,92,94,96,98,-1,-1,100,-1,-1,102,104,106,-1,108,-1,-1,110,112,-1,-1,114,-1,116,-1,-1,118,120,122,124,126,-1,128,130,132,134,136,-1,138,140,-1,142,144,146,148,-1,150,-1,-1,152,-1,-1,-1,-1,-1,-1,154,-1,-1,-1,156,-1,-1,-1,158,160,162,164,-1,166,168,-1,170,172,174,176,178,-1,-1,180,-1,-1,-1,-1,-1,182,184,186,-1,188,190,-1,-1,192,194,-1,-1,196,198,-1,-1,-1,-1,-1,-1,-1,-1,-1,-1,-1,-1,-1,-1,-1,-1,-1,-1,-1,-1,-1,-1,-1,-1,-1,-1,-1,-1,-1,-1,-1,-1,-1,-1,-1,-1,-1,-1,-1,-1,-1,-1,-1,-1,-1,-1,-1,-1],"split_conditions":[NaN,-2.290429E-1,3.5894173E-1,7.3758864E-1,2.9787233E-1,NaN,1.4285715E-1,-8.167498E-1,-1.981671E1,-1.8369701E-16,-1.0128053E-1,1.9148937E-1,NaN,-7.6564485E-1,1.904762E-1,7.154668E-2,7.1648437E-1,1.797967E-1,1.904762E-1,2.2373442E-1,1.4063154E0,9.52381E-2,1E0,1.797967E-1,6.8085104E-1,5.653778E-1,7.33274E-1,6.123234E-17,-1.8369701E-16,3.4563081E0,-1.5284574E1,-4.8456764E-1,1.4285715E-1,3.7814805E-1,5.1197886E-1,5.2034315E-2,3.0132282E-1,-1.0717529E0,-1.2660998E1,3.66955E-2,-3.7539399E0,-9.550101E0,3.0132282E-1,-2.7868818E1,-7.9119736E-1,3.0132282E-1,1.1511066E-1,2.0821674E-1,-5.8677757E-1,-1.2511419E0,NaN,3.9735436E-1,7.519715E-1,8.080641E-1,4.608739E-1,2.9787233E-1,2.4113475E-1,5.5410046E1,2.4232002E1,7.33274E-1,1.8261337E1,8.958549E0,1.2869173E-1,8.2676166E-1,5.98957E-1,-1.3478846E1,6.9969475E-1,-5.590671E0,-2.021194E1,1.055711E-2,2.0534916E-1,-4.187613E0,2.684717E0,1.055711E-2,-1.6177889E1,1.055711E-2,-1.6519102E1,-1.7572844E1,2.7028745E-1,-5E-1,2.2373442E-1,9.52381E-2,2.7982702E-2,8.888296E0,9.52381E-2,6.4932585E-1,-8.678548E-1,3.7814805E-1,7.1648437E-1,1.9866581E1,7.893666E-1,2.0534916E-1,2.6510147E1,7.33274E-1,5.3179854E-1,6.157466E-1,2.648184E-2,7.369159E0,3.4042552E-1,-7.1248903E0,8.248786E0,-2.4623109E-2,-1.8468973E1,2.3403067E1,5.5619264E0,-7.472748E0,6.212555E-1,1.1247629E1,7.519715E-1,1.2568973E1,-3.8028095E0,2.5996021E1,4.5497328E-1,2.2646332E0,-6.8619876E0,-4.5459323E0,1.4614601E-1,2.3809524E-1,1.904762E-1,-3.5680526E-1,-3.0777952E1,9.52381E-2,3.2052913E-1,-1.0458217E1,9.768507E-2,1.4285715E-1,6.123234E-17,3.9735436E-1,5.125922E-1,5.373346E0,-1.4667773E1,-1.1744845E0,3.3820766E1,1.3478076E1,2.1861878E-1,-2.604842E1,-4.9464874E0,-4.590152E-1,8.080641E-1,-2.8014785E-1,-1.7410242E1,-3.8235775E-1,NaN,-1.378183E0,-5.5494814E0,4.608739E-1,NaN,3.037665E0,-9.483899E0,1.7640501E0,NaN,-8.99615E0,3.0511515E0,-3.6317964E0,4.764618E-1,1.8048582E1,9.9404496E-1,1.8971472E1,4.141073E0,1.0453471E1,-1.791626E0,-2.9820802E0,-1.2103436E1,-1.5383072E1,-4.765788E0,9.018378E0,4.6274415E-1,-1.3880577E1,-8.761145E-1,-4.386432E0,2.570369E1,-5.7996826E0,1.0700095E1,-5.1053243E0,-1.5877045E1,-2.718921E0,-1.4011283E1,4.4369102E-1,-3.699643E0,2.5038599E1,-1.2760547E1,-7.7982545E0,-8.7026066E-1,1.6482706E0,1.1418329E1,-8.125497E-1,1.4609453E1,8.883838E0,4.7457355E1,-1.3084729E1,7.9287753E0,8.847606E0,2.7541182E1,1.4023058E1,-3.2087648E0,-2.0526234E1,-8.8961795E-2,-1.4448337E1,1.2458419E1],"split_indices":[12,16,3,4,4,15,5,16,0,8,16,4,11,16,5,3,3,16,5,3,16,5,8,16,4,3,3,8,8,0,0,16,5,3,16,16,3,0,0,3,0,0,3,0,16,3,3,3,16,16,15,3,3,3,16,4,4,0,0,3,0,0,16,3,3,0,3,0,0,3,16,0,0,3,0,3,0,0,3,8,3,5,3,0,5,3,16,3,3,0,3,16,0,3,3,3,16,0,4,0,0,16,0,0,0,0,0,0,3,0,0,0,3,0,0,0,3,5,5,16,0,5,3,0,3,5,8,3,3,0,0,16,0,0,0,0,0,16,3,16,0,16,11,0,0,16,14,0,0,16,11,0,0,0,0,0,0,0,0,0,0,0,0,0,0,0,0,0,0,0,0,0,0,0,0,0,0,0,0,0,0,0,0,0,0,0,0,0,0,0,0,0,0,0,0,0,0,0,0],"split_type":[1,0,0,0,0,1,0,0,0,0,0,0,1,0,0,0,0,0,0,0,0,0,0,0,0,0,0,0,0,0,0,0,0,0,0,0,0,0,0,0,0,0,0,0,0,0,0,0,0,0,1,0,0,0,0,0,0,0,0,0,0,0,0,0,0,0,0,0,0,0,0,0,0,0,0,0,0,0,0,0,0,0,0,0,0,0,0,0,0,0,0,0,0,0,0,0,0,0,0,0,0,0,0,0,0,0,0,0,0,0,0,0,0,0,0,0,0,0,0,0,0,0,0,0,0,0,0,0,0,0,0,0,0,0,0,0,0,0,0,0,0,0,1,0,0,0,1,0,0,0,1,0,0,0,0,0,0,0,0,0,0,0,0,0,0,0,0,0,0,0,0,0,0,0,0,0,0,0,0,0,0,0,0,0,0,0,0,0,0,0,0,0,0,0,0,0,0,0,0],"sum_hessian":[2.68E2,6E1,2.08E2,1.4E1,4.6E1,1.02E2,1.06E2,1.3E1,1E0,2.3E1,2.3E1,1.6E1,8.6E1,4.7E1,5.9E1,2E0,1.1E1,1.4E1,9E0,2E0,2.1E1,4E0,1.2E1,2.7E1,5.9E1,2.5E1,2.2E1,2.8E1,3.1E1,1E0,1E0,8E0,3E0,8E0,6E0,4E0,5E0,1E0,1E0,2E1,1E0,2E0,2E0,9E0,3E0,1.2E1,1.5E1,3.1E1,2.8E1,1E1,1.5E1,1.4E1,8E0,1.7E1,1.1E1,1.6E1,1.5E1,3E0,5E0,2E0,1E0,1E0,7E0,4E0,2E0,1E0,3E0,1E0,4E0,3E0,1.7E1,1E0,1E0,2E0,1E0,1.1E1,1E0,7E0,8E0,9E0,2.2E1,1.1E1,1.7E1,2E0,8E0,4E0,1.1E1,2E0,1.2E1,1E0,7E0,1.5E1,2E0,8E0,3E0,1.3E1,3E0,2E0,1.3E1,1E0,1E0,6E0,1E0,3E0,1E0,1E0,1E0,1E0,2E0,1E0,2E0,7E0,1E1,1E0,1E0,1E0,1E1,6E0,2E0,5E0,4E0,2E0,2E1,5E0,6E0,2E0,1.5E1,5E0,3E0,2E0,2E0,8E0,3E0,1E0,1E0,1.1E1,1E0,4E0,3E0,1.3E1,2E0,6E0,2E0,1E0,2E0,5E0,8E0,1E0,2E0,1E1,3E0,4E0,2E0,1E0,1E0,8E0,2E0,5E0,5E0,4E0,2E0,1E0,1E0,3E0,2E0,1E0,1E0,1.6E1,4E0,4E0,2E0,1E0,1E0,8E0,7E0,1E0,4E0,2E0,1E0,4E0,4E0,3E0,1E0,2E0,1E0,6E0,7E0,1E0,5E0,1E0,1E0,2E0,3E0,2E0,6E0,9E0,1E0,1E0,2E0],"tree_param":{"num_deleted":"0","num_feature":"17","num_nodes":"199","size_leaf_vector":"1"}},{"base_weights":[-7.9455137E0,5.2099963E2,-1.7639559E1,3.410127E1,-3.077582E0,-1.5276688E2,2.9042963E1,-5.309612E1,-2.8389136E2,1.2148726E2,-2.7234627E1,-8.5172415E-1,-4.2908542E2,-2.9546833E1,-2.1392528E2,1.1357884E1,1.9954909E2,-3.0689554E2,2.7906624E1,-1.6521938E1,1.7482325E1,-2.986238E1,6.089081E0,-1.3317117E2,-2.8443546E2,4.3322224E1,-2.5287525E1,3.6574692E2,2.4675203E1,-3.6085162E2,1.3712488E2,7.278473E1,-1.2220494E2,7.833086E1,-1.107423E2,-3.0334033E2,2.3380136E2,-4.912276E1,-3.2275388E2,2.347265E2,-3.025947E1,-2.2487083E2,4.6558313E2,-8.734159E1,3.5661307E2,-1.6818471E2,-4.3683755E2,-8.4850466E-1,1.1132871E1,1.375475E2,-8.2966805E1,-2.459454E2,1.7148672E2,2.5127712E1,2.3005568E1,-3.6042157E2,1.25309515E1,-2.5247377E1,-1.4480188E2,-8.413971E-1,1.5033284E1,2.5892608E0,-6.273468E0,-6.262726E-1,-3.5252417E2,-1.7651098E1,4.5308633E2,6.420247E1,-1.6892642E2,9.651041E0,-2.1425417E1,8.619518E2,3.4493268E2,8.378831E0,-1.296799E2,-1.1342417E1,5.18675E2,-7.472449E1,-1.906239E2,-4.592219E2,-4.205631E0,-7.1493805E1,2.0417133E2,2.1454094E1,-1.4614851E2,-2.9761453E2,1.58107395E1,2.7543146E2,-9.356498E1,3.9416063E0,-9.1987295E0,-5.1873293E0,-2.0569883E1,9.481509E0,-8.353724E0,1.68927E0,-9.009867E0,-2.1658115E1,-1.1328586E1,2.8660181E1,-6.6904387E0,1.3286966E1,-4.1633454E-1,1.4364105E0,-1.288698E1,5.7905154E0,5.3603107E1,2.0254005E1,-3.539107E0,-1.366127E1,-1.9796642E0,2.855191E1,7.730554E0,-6.4025575E-1,-4.964081E0,-2.804407E0,-1.051179E1,-2.5199396E1,-7.846395E0,-2.3180984E1,8.5465555E0,2.6208128E1,6.5715914E0,-1.437173E1,-7.67827E-1,1.2383151E1,-1.7358665E1,1.8042204E1,3.4868755E0,-1.265759E1,5.6402164E0],"categories":[0,0,0,0,0,0,0,0],"categories_nodes":[16,36,38,41,52,56,84,87],"categories_segments":[0,1,2,3,4,5,6,7],"categories_sizes":[1,1,1,1,1,1,1,1],"default_left":[0,0,0,0,0,0,0,0,0,0,0,0,0,0,0,0,1,0,0,0,0,0,0,0,0,0,0,0,0,0,0,0,0,0,0,0,1,0,1,0,0,1,0,0,0,0,0,0,0,0,0,0,1,0,0,0,1,0,0,0,0,0,0,0,0,0,0,0,0,0,0,0,0,0,0,0,0,0,0,0,0,0,0,0,1,0,0,1,0,0,0,0,0,0,0,0,0,0,0,0,0,0,0,0,0,0,0,0,0,0,0,0,0,0,0,0,0,0,0,0,0,0,0,0,0,0,0,0,0,0,0],"id":9,"left_children":[1,3,5,-1,-1,7,9,11,13,15,17,19,21,-1,23,25,27,29,31,-1,33,-1,-1,35,37,39,-1,41,43,45,47,49,51,53,55,57,59,61,63,65,67,69,71,73,75,77,79,-1,-1,81,83,85,87,89,-1,91,93,-1,95,-1,-1,-1,-1,-1,97,-1,99,101,103,-1,-1,105,107,-1,109,-1,111,113,115,117,-1,119,121,-1,123,125,-1,127,129,-1,-1,-1,-1,-1,-1,-1,-1,-1,-1,-1,-1,-1,-1,-1,-1,-1,-1,-1,-1,-1,-1,-1,-1,-1,-1,-1,-1,-1,-1,-1,-1,-1,-1,-1,-1,-1,-1,-1,-1,-1,-1],"loss_changes":[1.4244129E6,5.110085E5,1.7202358E6,0E0,0E0,8.997756E5,1.0594248E6,8.050112E5,5.180665E5,6.5969475E5,1.9670125E6,2.2935542E5,5.359086E5,0E0,1.10165E5,5.673681E5,1.2988401E6,5.5259175E5,7.2972394E5,0E0,2.8955662E5,0E0,0E0,9.451851E5,1.01364E5,4.5778588E5,0E0,1.4608918E6,8.863473E5,2.0469E5,4.331891E4,8.4862475E5,9.5071506E5,4.962365E5,3.738617E5,2.465075E5,8.885034E4,2.9609402E4,9.7175875E4,1.3150154E6,3.2521547E5,4.2310462E5,6.59126E5,2.1600188E5,6.850019E5,4.359375E2,6.401525E4,0E0,0E0,8.3629775E5,8.715124E5,6.16944E5,2.4617655E5,2.727866E5,0E0,9.656094E3,3.1795416E5,0E0,5.0336266E4,0E0,0E0,0E0,0E0,0E0,3.423375E3,0E0,5.701735E5,2.2147219E5,1.8294772E5,0E0,0E0,5.029325E5,4.537435E5,0E0,1.9608656E5,0E0,7.028875E3,3.290371E3,1.4007656E3,8.330025E4,0E0,1.5051632E6,9.785284E5,0E0,4.2060497E5,5.45378E5,0E0,8.024878E4,1.2735808E5,0E0,0E0,0E0,0E0,0E0,0E0,0E0,0E0,0E0,0E0,0E0,0E0,0E0,0E0,0E0,0E0,0E0,0E0,0E0,0E0,0E0,0E0,0E0,0E0,0E0,0E0,0E0,0E0,0E0,0E0,0E0,0E0,0E0,0E0,0E0,0E0,0E0,0E0,0E0,0E0,0E0,0E0],"parents":[2147483647,0,0,1,1,2,2,5,5,6,6,7,7,8,8,9,9,10,10,11,11,12,12,14,14,15,15,16,16,17,17,18,18,20,20,23,23,24,24,25,25,27,27,28,28,29,29,30,30,31,31,32,32,33,33,34,34,35,35,36,36,37,37,38,38,39,39,40,40,41,41,42,42,43,43,44,44,45,45,46,46,49,49,50,50,51,51,52,52,53,53,55,55,56,56,58,58,64,64,66,66,67,67,68,68,71,71,72,72,74,74,76,76,77,77,78,78,79,79,81,81,82,82,84,84,85,85,87,87,88,88],"right_children":[2,4,6,-1,-1,8,10,12,14,16,18,20,22,-1,24,26,28,30,32,-1,34,-1,-1,36,38,40,-1,42,44,46,48,50,52,54,56,58,60,62,64,66,68,70,72,74,76,78,80,-1,-1,82,84,86,88,90,-1,92,94,-1,96,-1,-1,-1,-1,-1,98,-1,100,102,104,-1,-1,106,108,-1,110,-1,112,114,116,118,-1,120,122,-1,124,126,-1,128,130,-1,-1,-1,-1,-1,-1,-1,-1,-1,-1,-1,-1,-1,-1,-1,-1,-1,-1,-1,-1,-1,-1,-1,-1,-1,-1,-1,-1,-1,-1,-1,-1,-1,-1,-1,-1,-1,-1,-1,-1,-1,-1],"split_conditions":[2.5247063E-2,1.904762E-1,1.8370315E-1,3.410127E1,-3.077582E0,1.3693827E-1,-3.5680526E-1,1.0741333E0,1.6002238E-1,-7.400924E-1,1.4285715E-1,4.761905E-2,1.1355585E-1,-2.9546833E1,-3.0570033E-1,-7.6564485E-1,NaN,7.33274E-1,5.6718254E-1,-1.6521938E1,2.0534916E-1,-2.986238E1,6.089081E0,1.4285715E-1,4.5408294E-2,2.7201194E-1,-2.5287525E1,1.9037852E-1,8.660254E-1,2.5476977E-1,2.3501772E-1,6.652937E-1,3.3973545E-1,5.2034315E-2,4.608739E-1,6.123234E-17,NaN,1.797967E-1,NaN,4.761905E-2,-5E-1,NaN,-7.1453995E-1,9.52381E-2,-6.63435E-1,-8.660254E-1,9.713593E-1,-8.4850466E-1,1.1132871E1,-7.572806E-2,-8.660254E-1,1.6873927E0,NaN,8.660254E-1,2.3005568E1,-5E-1,NaN,-2.5247377E1,4.761905E-2,-8.413971E-1,1.5033284E1,2.5892608E0,-6.273468E0,-6.262726E-1,4.8642638E-1,-1.7651098E1,1E0,-1.3022468E0,4.761905E-2,9.651041E0,-2.1425417E1,5.473056E-1,1E0,8.378831E0,-5.6122506E-1,-1.1342417E1,-4.8456764E-1,3.875816E-1,9.52381E-2,6.9969475E-1,-4.205631E0,2.5250793E-1,2.0637703E-1,2.1454094E1,NaN,-3.0570033E-1,1.58107395E1,NaN,5.8269626E-1,3.9416063E0,-9.1987295E0,-5.1873293E0,-2.0569883E1,9.481509E0,-8.353724E0,1.68927E0,-9.009867E0,-2.1658115E1,-1.1328586E1,2.8660181E1,-6.6904387E0,1.3286966E1,-4.1633454E-1,1.4364105E0,-1.288698E1,5.7905154E0,5.3603107E1,2.0254005E1,-3.539107E0,-1.366127E1,-1.9796642E0,2.855191E1,7.730554E0,-6.4025575E-1,-4.964081E0,-2.804407E0,-1.051179E1,-2.5199396E1,-7.846395E0,-2.3180984E1,8.5465555E0,2.6208128E1,6.5715914E0,-1.437173E1,-7.67827E-1,1.2383151E1,-1.7358665E1,1.8042204E1,3.4868755E0,-1.265759E1,5.6402164E0],"split_indices":[2,5,2,0,0,2,16,16,2,16,5,5,2,0,16,16,11,3,2,0,16,0,0,5,3,2,0,2,8,3,2,16,3,16,16,8,14,16,13,5,8,14,16,5,16,7,2,0,0,16,8,16,11,8,0,8,11,0,5,0,0,0,0,0,16,0,8,16,5,0,0,2,8,0,16,0,16,2,5,3,0,2,2,0,14,16,0,14,2,0,0,0,0,0,0,0,0,0,0,0,0,0,0,0,0,0,0,0,0,0,0,0,0,0,0,0,0,0,0,0,0,0,0,0,0,0,0,0,0,0,0],"split_type":[0,0,0,0,0,0,0,0,0,0,0,0,0,0,0,0,1,0,0,0,0,0,0,0,0,0,0,0,0,0,0,0,0,0,0,0,1,0,1,0,0,1,0,0,0,0,0,0,0,0,0,0,1,0,0,0,1,0,0,0,0,0,0,0,0,0,0,0,0,0,0,0,0,0,0,0,0,0,0,0,0,0,0,0,1,0,0,1,0,0,0,0,0,0,0,0,0,0,0,0,0,0,0,0,0,0,0,0,0,0,0,0,0,0,0,0,0,0,0,0,0,0,0,0,0,0,0,0,0,0,0],"sum_hessian":[2.75E2,4E0,2.71E2,3E0,1E0,6.9E1,2.02E2,4E1,2.9E1,7.6E1,1.26E2,3.6E1,4E0,4E0,2.5E1,3.2E1,4.4E1,2E1,1.06E2,1E0,3.5E1,3E0,1E0,1.3E1,1.2E1,3.1E1,1E0,2.2E1,2.2E1,1.8E1,2E0,8.2E1,2.4E1,2.4E1,1.1E1,9E0,4E0,2E0,1E1,8E0,2.3E1,3E0,1.9E1,1.7E1,5E0,6E0,1.2E1,1E0,1E0,5.8E1,2.4E1,1.7E1,7E0,2.2E1,2E0,3E0,8E0,3E0,6E0,1E0,3E0,1E0,1E0,1E0,9E0,2E0,6E0,1.4E1,9E0,1E0,2E0,3E0,1.6E1,2E0,1.5E1,1E0,4E0,2E0,4E0,1.1E1,1E0,1.4E1,4.4E1,2E0,2.2E1,1.6E1,1E0,5E0,2E0,1.8E1,4E0,1E0,2E0,4E0,4E0,1E0,5E0,4E0,5E0,5E0,1E0,3E0,1.1E1,3E0,6E0,1E0,2E0,1.4E1,2E0,5E0,1E1,3E0,1E0,1E0,1E0,1E0,3E0,9E0,2E0,5E0,9E0,7E0,3.7E1,1E1,1.2E1,1E0,1.5E1,3E0,2E0,1E0,1E0],"tree_param":{"num_deleted":"0","num_feature":"17","num_nodes":"131","size_leaf_vector":"1"}},{"base_weights":[3.4792886E0,6.513683E1,-7.7411575E1,-1.689192E2,1.27284615E2,-1.6247733E2,1.4753734E2,-2.8775262E2,-1.7247059E1,2.2705385E2,-2.5843157E1,-2.1327019E2,-7.451286E0,-1.0155399E2,2.0454099E2,-4.1238086E2,-1.5962476E2,-1.6671114E2,3.4491614E2,6.6528845E2,1.7372627E2,-6.795449E1,3.7517203E2,-1.8736736E2,-4.9699194E2,4.3404503E1,-1.299337E1,4.194861E1,-1.0983405E1,3.456687E2,1.1949792E2,-7.575437E0,-4.6527164E2,-6.4054054E1,-1.02543E1,4.2758194E1,-2.4128516E2,-9.655729E1,3.3570877E1,5.181634E1,3.6888785E2,-4.3840122E1,2.6162964E2,-2.4075286E0,-3.1023752E2,-3.6408966E0,2.52687E1,-3.1901877E2,-1.0894418E2,-6.4169707E0,-2.785351E1,7.943202E0,1.792923E1,-8.721033E0,8.610596E0,-2.591276E1,4.4180316E2,-1.2047384E2,1.5481659E2,-8.736993E0,-2.7326818E1,-7.820184E0,2.4823465E0,-1.4414397E1,1.2460144E1,6.89541E0,-3.0592285E2,-3.2331544E-1,-6.9184813E0,-2.4735627E0,2.3122696E1,-2.9377237E2,7.5717606E1,5.6063995E2,1.8231908E2,-1.4042982E2,9.3712654E1,-3.7792442E1,-1.0435358E2,-2.8364958E1,-2.3689136E2,-4.9989452E1,-2.4725233E2,-4.0254543E1,1.1908074E2,-1.6337278E1,1.4393821E1,2.626534E1,6.376408E0,-9.357483E-1,-8.09979E0,-6.216049E0,2.6816104E2,-3.437552E2,-1.0274109E0,-2.5641127E1,-1.2791748E0,3.3754742E2,-8.895205E1,1.6470398E0,6.1561316E2,-4.779027E2,2.4701823E2,-1.9719187E0,-2.2232141E1,-3.2405376E1,2.120213E2,1.1117374E2,-1.2795236E1,2.692627E0,-2.5603558E2,-2.4336936E-1,-1.660366E2,-3.1824368E2,-2.570868E1,-1.1431997E1,-1.0373691E1,-5.3117065E0,1.8526075E1,1.085455E1,-6.913006E1,3.087738E2,-2.43385E0,-1.8691175E1,-4.0836368E0,2.4676554E0,-3.8294008E0,3.0878763E0,2.300015E1,-1.4324782E1,1.8318716E0,1.9443779E1,4.6973156E1,-5.841388E0,-2.7965921E1,1.6870005E1,-4.0850544E0,8.200884E0,-3.7762985E0,8.633661E0,-5.997541E0,-3.0006409E0,1.211037E1,1.2014041E1,-5.977783E-1,-6.686008E0,-1.4639691E1,-3.466763E0,4.4800215E0,-1.0347742E0,-1.3908521E1,-2.0255722E1,-1.0364463E1,4.426767E0,-4.66509E0,-3.278467E0,1.5300003E0,1.258237E1,-6.6231666E0,-4.1987295E0,4.9842834E-1,1.7594465E1,5.262319E0],"categories":[0,0,0,0,0,0],"categories_nodes":[0,1,43,97,101,107],"categories_segments":[0,1,2,3,4,5],"categories_sizes":[1,1,1,1,1,1],"default_left":[1,1,0,0,0,0,0,0,0,0,0,0,0,0,0,0,0,0,0,0,0,0,0,0,0,0,0,0,0,0,0,0,0,0,0,0,0,0,0,0,0,0,0,1,0,0,0,0,0,0,0,0,0,0,0,0,0,0,0,0,0,0,0,0,0,0,0,0,0,0,0,0,0,0,0,0,0,0,0,0,0,0,0,0,0,0,0,0,0,0,0,0,0,0,0,0,0,1,0,0,0,1,0,0,0,0,0,1,0,0,0,0,0,0,0,0,0,0,0,0,0,0,0,0,0,0,0,0,0,0,0,0,0,0,0,0,0,0,0,0,0,0,0,0,0,0,0,0,0,0,0,0,0,0,0,0,0,0,0,0,0,0,0],"id":10,"left_children":[1,3,5,7,9,11,13,15,17,19,21,23,25,27,29,31,33,35,37,39,41,43,45,47,49,51,-1,53,-1,55,57,-1,59,61,-1,63,65,67,-1,-1,69,71,73,75,77,-1,-1,79,81,-1,-1,83,-1,-1,-1,85,87,89,91,-1,-1,-1,-1,-1,-1,-1,93,-1,-1,-1,-1,95,97,99,101,103,105,-1,107,-1,109,111,113,115,117,-1,-1,-1,-1,-1,-1,119,121,123,-1,-1,125,127,129,-1,131,133,135,137,-1,139,141,143,-1,-1,145,147,149,151,153,155,-1,157,-1,-1,159,161,-1,-1,-1,-1,-1,-1,-1,-1,-1,-1,-1,-1,-1,-1,-1,-1,-1,-1,-1,-1,-1,-1,-1,-1,-1,-1,-1,-1,-1,-1,-1,-1,-1,-1,-1,-1,-1,-1,-1,-1,-1],"loss_changes":[1.4065389E6,2.348871E6,2.358496E6,6.078437E5,1.9461028E6,6.99216E5,5.035418E5,2.3757238E5,9.235875E5,1.6839112E6,8.867462E5,3.992765E5,3.0652625E5,1.2786254E5,2.9474738E5,5.3686875E4,3.4655812E4,1.9776853E5,7.855387E5,4.9751975E5,1.350207E6,7.456561E5,3.2844612E5,6.156895E5,3.9246E4,2.2068561E5,0E0,1.4277722E5,0E0,3.6866612E5,1.7968553E5,0E0,6.976825E4,6.026618E4,0E0,3.4521303E5,2.627809E5,1.0406002E4,0E0,0E0,2.5774344E5,6.497517E5,1.0835188E6,5.1729575E5,8.385666E5,0E0,0E0,3.3459625E5,3.219507E5,0E0,0E0,1.0656853E5,0E0,0E0,0E0,3.7725653E5,1.429535E5,9.643934E3,3.1195353E5,0E0,0E0,0E0,0E0,0E0,0E0,0E0,7.930756E4,0E0,0E0,0E0,0E0,4.478387E5,6.7675694E5,2.6981425E5,1.8693985E6,6.7305444E5,3.5005025E5,0E0,2.8975716E5,0E0,1.19543625E5,1.7314631E5,1.8055062E5,6.5103746E4,1.8963206E5,0E0,0E0,0E0,0E0,0E0,0E0,1.2740065E5,1.4370694E5,2.4631438E4,0E0,0E0,1.903209E4,1.7422344E5,2.5859045E5,0E0,2.9552625E5,5.224475E4,1.1565558E6,1.5889808E5,0E0,2.3615666E5,1.1307525E5,6.646016E4,0E0,0E0,4.1777375E4,1.4277698E5,1.4092198E5,2.772375E3,3.9148945E4,3.158793E4,0E0,1.9669789E5,0E0,0E0,9.056383E3,4.1941562E4,0E0,0E0,0E0,0E0,0E0,0E0,0E0,0E0,0E0,0E0,0E0,0E0,0E0,0E0,0E0,0E0,0E0,0E0,0E0,0E0,0E0,0E0,0E0,0E0,0E0,0E0,0E0,0E0,0E0,0E0,0E0,0E0,0E0,0E0,0E0,0E0,0E0,0E0,0E0,0E0,0E0],"parents":[2147483647,0,0,1,1,2,2,3,3,4,4,5,5,6,6,7,7,8,8,9,9,10,10,11,11,12,12,13,13,14,14,15,15,16,16,17,17,18,18,19,19,20,20,21,21,22,22,23,23,24,24,25,25,27,27,29,29,30,30,32,32,33,33,35,35,36,36,37,37,40,40,41,41,42,42,43,43,44,44,47,47,48,48,51,51,55,55,56,56,57,57,58,58,66,66,71,71,72,72,73,73,74,74,75,75,76,76,78,78,80,80,81,81,82,82,83,83,84,84,91,91,92,92,93,93,96,96,97,97,98,98,100,100,101,101,102,102,103,103,105,105,106,106,107,107,110,110,111,111,112,112,113,113,114,114,115,115,117,117,120,120,121,121],"right_children":[2,4,6,8,10,12,14,16,18,20,22,24,26,28,30,32,34,36,38,40,42,44,46,48,50,52,-1,54,-1,56,58,-1,60,62,-1,64,66,68,-1,-1,70,72,74,76,78,-1,-1,80,82,-1,-1,84,-1,-1,-1,86,88,90,92,-1,-1,-1,-1,-1,-1,-1,94,-1,-1,-1,-1,96,98,100,102,104,106,-1,108,-1,110,112,114,116,118,-1,-1,-1,-1,-1,-1,120,122,124,-1,-1,126,128,130,-1,132,134,136,138,-1,140,142,144,-1,-1,146,148,150,152,154,156,-1,158,-1,-1,160,162,-1,-1,-1,-1,-1,-1,-1,-1,-1,-1,-1,-1,-1,-1,-1,-1,-1,-1,-1,-1,-1,-1,-1,-1,-1,-1,-1,-1,-1,-1,-1,-1,-1,-1,-1,-1,-1,-1,-1,-1,-1],"split_conditions":[NaN,NaN,2.4221E4,1.2246469E-16,1.904762E-1,7.3049647E-1,1.8370315E-1,2.4203E4,8.660254E-1,1.9148937E-1,2.857143E-1,1E0,2.3809524E-1,9.52381E-2,9.52381E-2,9.52381E-2,9.52381E-2,1.7333582E-1,2.4206E4,1.4285715E-1,2.6950353E-1,8.660254E-1,-5E-1,2.4203E4,4.761905E-2,2.4194E4,-1.299337E1,1.6487041E-1,-1.0983405E1,4.761905E-2,-8.660254E-1,-7.575437E0,7.111691E-2,2.5531915E-1,-1.02543E1,2.8230468E-2,2.0567375E-1,3.580086E-2,3.3570877E1,5.181634E1,2.4205E4,2.4226E4,3.0496454E-1,NaN,2.4207E4,-3.6408966E0,2.52687E1,1.6002238E-1,1.904762E-1,-6.4169707E0,-2.785351E1,8.1560284E-1,1.792923E1,-8.721033E0,8.610596E0,1.9037852E-1,3.083349E-1,3.083349E-1,1.4285715E-1,-8.736993E0,-2.7326818E1,-7.820184E0,2.4823465E0,-1.4414397E1,1.2460144E1,6.89541E0,2.797688E-1,-3.2331544E-1,-6.9184813E0,-2.4735627E0,2.3122696E1,1.4285715E-1,2.4228E4,4.761905E-2,3.1914893E-1,3.2624114E-1,2.6241136E-1,-3.7792442E1,2.4219E4,-2.8364958E1,9.52381E-2,5E-1,3.4042552E-1,1E0,1.3693827E-1,-1.6337278E1,1.4393821E1,2.626534E1,6.376408E0,-9.357483E-1,-8.09979E0,2.0567375E-1,2.3809524E-1,5E-1,-1.0274109E0,-2.5641127E1,2.5531915E-1,NaN,2.3475666E-1,1.6470398E0,-1.8369701E-16,NaN,8.660254E-1,2.4203E4,-2.2232141E1,-5E-1,2.5247063E-2,NaN,-1.2795236E1,2.692627E0,3.6625025E-1,1.4285715E-1,-2.4492937E-16,5E-1,1.1355585E-1,7.5177306E-1,-1.0373691E1,9.52381E-2,1.8526075E1,1.085455E1,2.3501772E-1,2.8644416E-1,-2.43385E0,-1.8691175E1,-4.0836368E0,2.4676554E0,-3.8294008E0,3.0878763E0,2.300015E1,-1.4324782E1,1.8318716E0,1.9443779E1,4.6973156E1,-5.841388E0,-2.7965921E1,1.6870005E1,-4.0850544E0,8.200884E0,-3.7762985E0,8.633661E0,-5.997541E0,-3.0006409E0,1.211037E1,1.2014041E1,-5.977783E-1,-6.686008E0,-1.4639691E1,-3.466763E0,4.4800215E0,-1.0347742E0,-1.3908521E1,-2.0255722E1,-1.0364463E1,4.426767E0,-4.66509E0,-3.278467E0,1.5300003E0,1.258237E1,-6.6231666E0,-4.1987295E0,4.9842834E-1,1.7594465E1,5.262319E0],"split_indices":[11,15,6,7,5,4,2,6,8,4,5,8,5,5,5,5,5,2,6,5,4,7,7,6,5,6,0,2,0,5,8,0,2,4,0,2,4,2,0,0,6,6,4,14,6,0,0,2,5,0,0,4,0,0,0,2,2,2,5,0,0,0,0,0,0,0,2,0,0,0,0,5,6,5,4,4,4,0,6,0,5,8,4,8,2,0,0,0,0,0,0,4,5,8,0,0,4,14,2,0,8,14,7,6,0,7,2,14,0,0,2,5,7,8,2,4,0,5,0,0,2,2,0,0,0,0,0,0,0,0,0,0,0,0,0,0,0,0,0,0,0,0,0,0,0,0,0,0,0,0,0,0,0,0,0,0,0,0,0,0,0,0,0],"split_type":[1,1,0,0,0,0,0,0,0,0,0,0,0,0,0,0,0,0,0,0,0,0,0,0,0,0,0,0,0,0,0,0,0,0,0,0,0,0,0,0,0,0,0,1,0,0,0,0,0,0,0,0,0,0,0,0,0,0,0,0,0,0,0,0,0,0,0,0,0,0,0,0,0,0,0,0,0,0,0,0,0,0,0,0,0,0,0,0,0,0,0,0,0,0,0,0,0,1,0,0,0,1,0,0,0,0,0,1,0,0,0,0,0,0,0,0,0,0,0,0,0,0,0,0,0,0,0,0,0,0,0,0,0,0,0,0,0,0,0,0,0,0,0,0,0,0,0,0,0,0,0,0,0,0,0,0,0,0,0,0,0,0,0],"sum_hessian":[2.8E2,1.59E2,1.21E2,3.3E1,1.26E2,8.8E1,3.3E1,1.8E1,1.5E1,7.6E1,5E1,6.6E1,2.2E1,6E0,2.7E1,8E0,1E1,1.1E1,4E0,7E0,6.9E1,4.6E1,4E0,6.2E1,4E0,1.9E1,3E0,3E0,3E0,9E0,1.8E1,2E0,6E0,4E0,6E0,3E0,8E0,2E0,2E0,2E0,5E0,2E1,4.9E1,3.7E1,9E0,1E0,3E0,2.2E1,4E1,1E0,3E0,1.8E1,1E0,1E0,2E0,2E0,7E0,2E0,1.6E1,2E0,4E0,2E0,2E0,1E0,2E0,1E0,7E0,1E0,1E0,1E0,4E0,6E0,1.4E1,9E0,4E1,1.5E1,2.2E1,2E0,7E0,4E0,1.8E1,2.9E1,1.1E1,1.3E1,5E0,1E0,1E0,5E0,2E0,1E0,1E0,7E0,9E0,6E0,1E0,3E0,3E0,5E0,9E0,1E0,8E0,3E0,3.7E1,1.1E1,4E0,1.1E1,1.1E1,3E0,4E0,1E0,1.7E1,2.1E1,8E0,8E0,3E0,1.2E1,1E0,4E0,1E0,1E0,6E0,8E0,1E0,5E0,1E0,2E0,1E0,2E0,3E0,3E0,6E0,6E0,2E0,1E0,2E0,2.9E1,8E0,3E0,8E0,3E0,8E0,1E0,1E1,1E0,2E0,5E0,1.2E1,1.2E1,9E0,4E0,4E0,3E0,5E0,1E0,2E0,5E0,7E0,1E0,3E0,5E0,1E0,6E0,2E0],"tree_param":{"num_deleted":"0","num_feature":"17","num_nodes":"163","size_leaf_vector":"1"}},{"base_weights":[-1.4658828E0,1.6289658E2,-5.0767292E1,2.2648822E2,-2.7876013E2,-1.1616172E2,6.710284E1,4.3206464E2,7.807667E1,-3.777573E2,1.2154256E1,-2.6215366E2,-8.2011086E1,-1.0434211E2,1.2618341E2,2.489526E2,6.269038E2,-3.3658665E1,2.6710712E2,-2.432904E0,-2.1692276E1,7.4904175E0,-6.5788484E0,-4.9795834E2,-1.3576593E2,5.1137535E1,-1.3772768E2,3.2636703E1,-2.4720507E1,3.1249094E2,3.951469E1,1.3729245E2,2.8332462E2,7.894127E2,1.8578732E2,3.3205923E2,-1.686992E2,3.028939E2,-3.1636841E0,-2.708729E1,-4.7861543E0,-1.7495747E2,1.2282471E1,-2.607237E2,8.061907E1,5.1690746E1,-2.278793E2,2.7112833E1,-4.249734E1,2.4145348E1,5.276925E-2,2.0860612E2,-9.294299E1,9.420964E0,-1.6803712E0,1.6563774E1,7.02836E0,4.7674526E1,1.2640605E1,-2.9256256E0,1.4336238E1,-1.4192902E1,5.120143E2,-4.145254E2,-5.2213367E1,-2.1492372E0,3.417802E2,-7.730916E1,-2.2428757E1,-1.7142553E1,-2.4117248E0,1.4534557E2,-8.65589E1,3.436497E0,2.0220488E1,-2.0400432E2,-2.7093882E1,1.8113426E2,-1.8686314E2,-7.8410196E0,9.4166115E1,4.078511E2,-6.652586E1,1.20445366E2,-1.8049147E2,5.5029573E0,2.9249414E1,-1.8108055E2,-2.5489754E1,1.8912094E1,-1.2573129E2,3.6771262E2,2.70972E0,-1.805188E2,6.1965017E0,-5.695352E0,1.6311507E2,1.6295097E2,-3.18757E2,-2.373306E1,1.5029169E1,-2.8139822E2,-1.1166076E2,-4.547188E1,1.5290265E1,3.909367E0,-2.7376147E2,5.6423984E0,4.8596802E-1,5.1134055E2,-1.3088843E1,-1.4665945E2,1.2360232E1,-1.20903114E2,2.4116537E2,7.197583E1,-2.2169936E2,-2.1742363E1,8.161323E0,7.1659584E0,-1.0072232E1,3.7334993E0,1.975046E1,-2.4814251E-1,-1.1498433E1,2.4087398E0,9.801149E0,-4.6240664E0,1.24964695E1,8.00766E-1,-2.0322697E1,1.8956725E-1,-9.965903E0,-8.129737E0,-2.2761217E1,-2.4708827E0,-1.1498488E1,1.6058625E0,-5.016254E0,-5.8955674E0,-1.8058561E1,4.35638E0,3.5446285E1,-1.1279773E1,8.173911E0,-5.647278E-1,-8.503006E0,1.6731276E1,3.3658407E0,9.955744E0,-4.557556E0,-1.5759888E0,-1.3535054E1],"categories":[0,0,0,0,0,0,0,0,0,0,0],"categories_nodes":[0,5,12,27,29,50,51,77,80,111,116],"categories_segments":[0,1,2,3,4,5,6,7,8,9,10],"categories_sizes":[1,1,1,1,1,1,1,1,1,1,1],"default_left":[1,0,0,0,0,1,0,0,0,0,0,0,1,0,0,0,0,0,0,0,0,0,0,0,0,0,0,1,0,1,0,0,0,0,0,0,0,0,0,0,0,0,0,0,0,0,0,0,0,0,1,1,0,0,0,0,0,0,0,0,0,0,0,0,0,0,0,0,0,0,0,0,0,0,0,0,0,1,0,0,1,0,0,0,0,0,0,0,0,0,0,0,0,0,0,0,0,0,0,0,0,0,0,0,0,0,0,0,0,0,0,1,0,0,0,0,1,0,0,0,0,0,0,0,0,0,0,0,0,0,0,0,0,0,0,0,0,0,0,0,0,0,0,0,0,0,0,0,0,0,0,0,0],"id":11,"left_children":[1,3,5,7,9,11,13,15,17,19,21,23,25,27,29,31,33,35,37,-1,-1,-1,-1,39,41,43,45,47,-1,49,51,53,55,57,59,61,63,65,-1,-1,-1,67,-1,69,71,73,75,-1,77,-1,79,81,83,-1,-1,-1,-1,-1,-1,-1,-1,-1,85,87,89,-1,91,93,-1,-1,-1,95,97,99,-1,101,-1,103,105,-1,107,109,111,113,115,-1,-1,117,-1,-1,119,121,-1,123,-1,-1,125,127,129,131,-1,133,135,137,-1,-1,139,-1,-1,141,-1,143,-1,145,147,149,151,-1,-1,-1,-1,-1,-1,-1,-1,-1,-1,-1,-1,-1,-1,-1,-1,-1,-1,-1,-1,-1,-1,-1,-1,-1,-1,-1,-1,-1,-1,-1,-1,-1,-1,-1,-1],"loss_changes":[2.1070248E6,1.7482762E6,1.5494048E6,1.5832912E6,2.34989E5,6.216581E5,7.424591E5,6.2883325E5,6.8487456E5,8.964144E4,7.90669E4,6.476616E5,7.9341344E5,1.031326E6,8.5959194E5,1.09955E4,5.701905E5,1.0931398E6,1.6104444E5,0E0,0E0,0E0,0E0,8.904525E4,2.970986E5,3.152321E5,1.2925076E6,5.9739156E5,0E0,9.051305E5,8.7049194E5,5.0020125E4,1.50415625E4,3.75256E5,1.15413E5,8.1036394E5,4.3652044E5,1.6264081E5,0E0,0E0,0E0,3.9281397E5,0E0,3.5816266E4,3.3720625E5,4.2411503E5,2.717865E5,0E0,4.858339E5,0E0,1.1811417E5,9.5905E5,4.327395E5,0E0,0E0,0E0,0E0,0E0,0E0,0E0,0E0,0E0,8.2278E4,1.8887188E4,4.2731094E5,0E0,5.4649875E4,2.9237944E5,0E0,0E0,0E0,1.19929375E5,5.733632E5,1.9282078E5,0E0,3.1877338E5,0E0,1.8341289E5,2.2869666E5,0E0,6.791297E3,8.2685125E5,2.3737772E5,2.3310678E5,1.8241528E5,0E0,0E0,3.3309953E5,0E0,0E0,2.5294869E5,4.249625E4,0E0,7.6989625E4,0E0,0E0,6.998794E4,1.3419928E5,1.5330203E5,1.0707889E5,0E0,4.6291262E5,1.6536953E5,1.5990199E4,0E0,0E0,5.2773562E4,0E0,0E0,6.9259675E5,0E0,2.0824708E5,0E0,1.4243328E4,5.8713625E4,8.036895E4,1.21935375E5,0E0,0E0,0E0,0E0,0E0,0E0,0E0,0E0,0E0,0E0,0E0,0E0,0E0,0E0,0E0,0E0,0E0,0E0,0E0,0E0,0E0,0E0,0E0,0E0,0E0,0E0,0E0,0E0,0E0,0E0,0E0,0E0,0E0,0E0,0E0,0E0],"parents":[2147483647,0,0,1,1,2,2,3,3,4,4,5,5,6,6,7,7,8,8,9,9,10,10,11,11,12,12,13,13,14,14,15,15,16,16,17,17,18,18,23,23,24,24,25,25,26,26,27,27,29,29,30,30,31,31,32,32,33,33,34,34,35,35,36,36,37,37,41,41,43,43,44,44,45,45,46,46,48,48,50,50,51,51,52,52,62,62,63,63,64,64,66,66,67,67,71,71,72,72,73,73,75,75,77,77,78,78,80,80,81,81,82,82,83,83,84,84,87,87,90,90,91,91,93,93,96,96,97,97,98,98,99,99,101,101,102,102,103,103,106,106,109,109,111,111,113,113,114,114,115,115,116,116],"right_children":[2,4,6,8,10,12,14,16,18,20,22,24,26,28,30,32,34,36,38,-1,-1,-1,-1,40,42,44,46,48,-1,50,52,54,56,58,60,62,64,66,-1,-1,-1,68,-1,70,72,74,76,-1,78,-1,80,82,84,-1,-1,-1,-1,-1,-1,-1,-1,-1,86,88,90,-1,92,94,-1,-1,-1,96,98,100,-1,102,-1,104,106,-1,108,110,112,114,116,-1,-1,118,-1,-1,120,122,-1,124,-1,-1,126,128,130,132,-1,134,136,138,-1,-1,140,-1,-1,142,-1,144,-1,146,148,150,152,-1,-1,-1,-1,-1,-1,-1,-1,-1,-1,-1,-1,-1,-1,-1,-1,-1,-1,-1,-1,-1,-1,-1,-1,-1,-1,-1,-1,-1,-1,-1,-1,-1,-1,-1,-1],"split_conditions":[NaN,1E0,5.3179854E-1,3.2052913E-1,5.821674E-1,NaN,-6.8898743E-1,-2.4492937E-16,3.0755907E-1,3.66955E-2,-5.6122506E-1,-2.4492937E-16,NaN,-8.167498E-1,2.4113475E-1,-1.0128053E-1,9.2936633E-4,-3.8235775E-1,1.4063154E0,-2.432904E0,-2.1692276E1,7.4904175E0,-6.5788484E0,2.5476977E-1,1E0,2.1276596E-1,-6.8898743E-1,NaN,-2.4720507E1,NaN,6.157466E-1,-4.590152E-1,7.3758864E-1,3.0132282E-1,3.3311152E-1,-9.9561715E-1,5.4858816E-1,-8.660254E-1,-3.1636841E0,-2.708729E1,-4.7861543E0,8.660254E-1,1.2282471E1,2.8580514E-1,7.7304965E-1,8.1560284E-1,5.125922E-1,2.7112833E1,-1.2766944E0,2.4145348E1,NaN,NaN,-3.8235775E-1,9.420964E0,-1.6803712E0,1.6563774E1,7.02836E0,4.7674526E1,1.2640605E1,-2.9256256E0,1.4336238E1,-1.4192902E1,3.9735436E-1,3.7814805E-1,5.653778E-1,-2.1492372E0,8.660254E-1,1.2246469E-16,-2.2428757E1,-1.7142553E1,-2.4117248E0,-8.167498E-1,1.797967E-1,5.125922E-1,2.0220488E1,2.5476977E-1,-2.7093882E1,NaN,5E-1,-7.8410196E0,NaN,1.5085254E0,5.98957E-1,6.8290514E-1,-5E-1,5.5029573E0,2.9249414E1,3.3973545E-1,-2.5489754E1,1.8912094E1,-2.290429E-1,4.1656068E-1,2.70972E0,-7.9119736E-1,6.1965017E0,-5.695352E0,2.4822696E-1,1.055711E-2,-2.4492937E-16,-7.1453995E-1,1.5029169E1,1.4614601E-1,3.3311152E-1,5.821674E-1,1.5290265E1,3.909367E0,5.98957E-1,5.6423984E0,4.8596802E-1,3.0755907E-1,-1.3088843E1,NaN,1.2360232E1,6.4932585E-1,7.519715E-1,6.6611546E-1,NaN,-2.1742363E1,8.161323E0,7.1659584E0,-1.0072232E1,3.7334993E0,1.975046E1,-2.4814251E-1,-1.1498433E1,2.4087398E0,9.801149E0,-4.6240664E0,1.24964695E1,8.00766E-1,-2.0322697E1,1.8956725E-1,-9.965903E0,-8.129737E0,-2.2761217E1,-2.4708827E0,-1.1498488E1,1.6058625E0,-5.016254E0,-5.8955674E0,-1.8058561E1,4.35638E0,3.5446285E1,-1.1279773E1,8.173911E0,-5.647278E-1,-8.503006E0,1.6731276E1,3.3658407E0,9.955744E0,-4.557556E0,-1.5759888E0,-1.3535054E1],"split_indices":[12,7,3,3,3,15,16,7,16,3,16,7,11,16,4,16,16,16,16,0,0,0,0,3,7,4,16,13,0,14,3,16,4,3,16,16,3,7,0,0,0,7,0,3,4,4,3,0,16,0,13,11,16,0,0,0,0,0,0,0,0,0,3,3,3,0,7,7,0,0,0,16,16,3,0,3,0,11,7,0,11,16,3,3,7,0,0,3,0,0,16,3,0,16,0,0,4,3,7,16,0,3,16,3,0,0,3,0,0,16,0,14,0,3,3,3,13,0,0,0,0,0,0,0,0,0,0,0,0,0,0,0,0,0,0,0,0,0,0,0,0,0,0,0,0,0,0,0,0,0,0,0,0],"split_type":[1,0,0,0,0,1,0,0,0,0,0,0,1,0,0,0,0,0,0,0,0,0,0,0,0,0,0,1,0,1,0,0,0,0,0,0,0,0,0,0,0,0,0,0,0,0,0,0,0,0,1,1,0,0,0,0,0,0,0,0,0,0,0,0,0,0,0,0,0,0,0,0,0,0,0,0,0,1,0,0,1,0,0,0,0,0,0,0,0,0,0,0,0,0,0,0,0,0,0,0,0,0,0,0,0,0,0,0,0,0,0,1,0,0,0,0,1,0,0,0,0,0,0,0,0,0,0,0,0,0,0,0,0,0,0,0,0,0,0,0,0,0,0,0,0,0,0,0,0,0,0,0,0],"sum_hessian":[2.58E2,5.9E1,1.99E2,5.2E1,7E0,1.28E2,7.1E1,2.1E1,3.1E1,5E0,2E0,2.3E1,1.05E2,1.8E1,5.3E1,1.2E1,9E0,2E1,1.1E1,1E0,4E0,1E0,1E0,7E0,1.6E1,3.1E1,7.4E1,1.4E1,4E0,1.6E1,3.7E1,4E0,8E0,6E0,3E0,5E0,1.5E1,1E1,1E0,6E0,1E0,1.5E1,1E0,2E0,2.9E1,2.4E1,5E1,1E0,1.3E1,1E1,6E0,1.6E1,2.1E1,3E0,1E0,5E0,3E0,4E0,2E0,1E0,2E0,1E0,4E0,4E0,1.1E1,1E0,9E0,1.2E1,3E0,1E0,1E0,2.1E1,8E0,2.2E1,2E0,4.8E1,2E0,5E0,8E0,2E0,4E0,9E0,7E0,6E0,1.5E1,1E0,3E0,2E0,2E0,1E0,1E1,8E0,1E0,8E0,4E0,1E0,2E1,4E0,4E0,2.1E1,1E0,2.5E1,2.3E1,2E0,3E0,2E0,6E0,3E0,1E0,8E0,1E0,6E0,1E0,2E0,4E0,2E0,1.3E1,1E0,1E0,2E0,8E0,1E0,7E0,2E0,6E0,5E0,1.5E1,1E0,3E0,1E0,3E0,1.9E1,2E0,1.6E1,9E0,1.6E1,7E0,1E0,1E0,3E0,3E0,3E0,5E0,5E0,1E0,1E0,1E0,2E0,2E0,1E0,1E0,3E0,1E1],"tree_param":{"num_deleted":"0","num_feature":"17","num_nodes":"153","size_leaf_vector":"1"}},{"base_weights":[1.8537989E1,1.7204187E2,-2.39466E1,3.6875745E2,4.158354E1,-1.20825294E2,7.786744E1,8.3347687E2,2.8480908E2,9.277498E1,-2.7622364E1,-3.3146103E2,-7.501525E1,1.3315051E2,-8.267569E1,